{"learner":{"attributes":{"best_iteration":"254","best_score":"0.00035482972308052"},"feature_names":["f0","f1","f2","f3","f4","f5","f6","f7","f8","f9","f10","f11","f12","f13","f14","f15","f16","f17","f18","f19","f20"],"feature_types":["float","int","int","int","int","float","int","float","int","int","float","int","float","float","int","float","int","int","int","int","int"],"gradient_booster":{"model":{"cats":{"enc":[],"feature_segments":[],"sorted_idx":[]},"gbtree_model_param":{"num_parallel_tree":"1","num_trees":"855"},"iteration_indptr":[0,3,6,9,12,15,18,21,24,27,30,33,36,39,42,45,48,51,54,57,60,63,66,69,72,75,78,81,84,87,90,93,96,99,102,105,108,111,114,117,120,123,126,129,132,135,138,141,144,147,150,153,156,159,162,165,168,171,174,177,180,183,186,189,192,195,198,201,204,207,210,213,216,219,222,225,228,231,234,237,240,243,246,249,252,255,258,261,264,267,270,273,276,279,282,285,288,291,294,297,300,303,306,309,312,315,318,321,324,327,330,333,336,339,342,345,348,351,354,357,360,363,366,369,372,375,378,381,384,387,390,393,396,399,402,405,408,411,414,417,420,423,426,429,432,435,438,441,444,447,450,453,456,459,462,465,468,471,474,477,480,483,486,489,492,495,498,501,504,507,510,513,516,519,522,525,528,531,534,537,540,543,546,549,552,555,558,561,564,567,570,573,576,579,582,585,588,591,594,597,600,603,606,609,612,615,618,621,624,627,630,633,636,639,642,645,648,651,654,657,660,663,666,669,672,675,678,681,684,687,690,693,696,699,702,705,708,711,714,717,720,723,726,729,732,735,738,741,744,747,750,753,756,759,762,765,768,771,774,777,780,783,786,789,792,795,798,801,804,807,810,813,816,819,822,825,828,831,834,837,840,843,846,849,852,855],"tree_info":[0,1,2,0,1,2,0,1,2,0,1,2,0,1,2,0,1,2,0,1,2,0,1,2,0,1,2,0,1,2,0,1,2,0,1,2,0,1,2,0,1,2,0,1,2,0,1,2,0,1,2,0,1,2,0,1,2,0,1,2,0,1,2,0,1,2,0,1,2,0,1,2,0,1,2,0,1,2,0,1,2,0,1,2,0,1,2,0,1,2,0,1,2,0,1,2,0,1,2,0,1,2,0,1,2,0,1,2,0,1,2,0,1,2,0,1,2,0,1,2,0,1,2,0,1,2,0,1,2,0,1,2,0,1,2,0,1,2,0,1,2,0,1,2,0,1,2,0,1,2,0,1,2,0,1,2,0,1,2,0,1,2,0,1,2,0,1,2,0,1,2,0,1,2,0,1,2,0,1,2,0,1,2,0,1,2,0,1,2,0,1,2,0,1,2,0,1,2,0,1,2,0,1,2,0,1,2,0,1,2,0,1,2,0,1,2,0,1,2,0,1,2,0,1,2,0,1,2,0,1,2,0,1,2,0,1,2,0,1,2,0,1,2,0,1,2,0,1,2,0,1,2,0,1,2,0,1,2,0,1,2,0,1,2,0,1,2,0,1,2,0,1,2,0,1,2,0,1,2,0,1,2,0,1,2,0,1,2,0,1,2,0,1,2,0,1,2,0,1,2,0,1,2,0,1,2,0,1,2,0,1,2,0,1,2,0,1,2,0,1,2,0,1,2,0,1,2,0,1,2,0,1,2,0,1,2,0,1,2,0,1,2,0,1,2,0,1,2,0,1,2,0,1,2,0,1,2,0,1,2,0,1,2,0,1,2,0,1,2,0,1,2,0,1,2,0,1,2,0,1,2,0,1,2,0,1,2,0,1,2,0,1,2,0,1,2,0,1,2,0,1,2,0,1,2,0,1,2,0,1,2,0,1,2,0,1,2,0,1,2,0,1,2,0,1,2,0,1,2,0,1,2,0,1,2,0,1,2,0,1,2,0,1,2,0,1,2,0,1,2,0,1,2,0,1,2,0,1,2,0,1,2,0,1,2,0,1,2,0,1,2,0,1,2,0,1,2,0,1,2,0,1,2,0,1,2,0,1,2,0,1,2,0,1,2,0,1,2,0,1,2,0,1,2,0,1,2,0,1,2,0,1,2,0,1,2,0,1,2,0,1,2,0,1,2,0,1,2,0,1,2,0,1,2,0,1,2,0,1,2,0,1,2,0,1,2,0,1,2,0,1,2,0,1,2,0,1,2,0,1,2,0,1,2,0,1,2,0,1,2,0,1,2,0,1,2,0,1,2,0,1,2,0,1,2,0,1,2,0,1,2,0,1,2,0,1,2,0,1,2,0,1,2,0,1,2,0,1,2,0,1,2,0,1,2,0,1,2,0,1,2,0,1,2,0,1,2,0,1,2,0,1,2,0,1,2,0,1,2,0,1,2,0,1,2,0,1,2,0,1,2,0,1,2,0,1,2,0,1,2,0,1,2,0,1,2,0,1,2,0,1,2,0,1,2,0,1,2,0,1,2,0,1,2,0,1,2,0,1,2,0,1,2,0,1,2,0,1,2,0,1,2,0,1,2,0,1,2,0,1,2,0,1,2,0,1,2,0,1,2,0,1,2,0,1,2,0,1,2,0,1,2,0,1,2,0,1,2,0,1,2,0,1,2,0,1,2,0,1,2,0,1,2,0,1,2,0,1,2,0,1,2,0,1,2,0,1,2,0,1,2,0,1,2,0,1,2,0,1,2,0,1,2,0,1,2,0,1,2,0,1,2,0,1,2,0,1,2,0,1,2,0,1,2,0,1,2,0,1,2,0,1,2,0,1,2,0,1,2,0,1,2,0,1,2,0,1,2,0,1,2,0,1,2,0,1,2,0,1,2,0,1,2,0,1,2,0,1,2,0,1,2,0,1,2],"trees":[{"base_weights":[-8.555167E-3,1.4964287E0,-7.232774E-1,7.487597E-2,-3.5301786E-2,-5.539871E-1,-7.481195E-1,7.478107E-2,-3.7525836E-2,-7.352206E-1,-3.7529763E-2,-3.752662E-2,7.376201E-2],"categories":[],"categories_nodes":[],"categories_segments":[],"categories_sizes":[],"default_left":[0,0,0,0,0,0,0,0,0,0,0,0,0],"id":0,"left_children":[1,3,5,-1,-1,7,9,-1,-1,11,-1,-1,-1],"loss_changes":[1.0906458E5,7.947656E1,2.8869922E2,0E0,0E0,3.5462383E3,1.3632812E0,0E0,0E0,3.29479E2,0E0,0E0,0E0],"parents":[2147483647,0,0,1,1,2,2,5,5,6,6,9,9],"right_children":[2,4,6,-1,-1,8,10,-1,-1,12,-1,-1,-1],"split_conditions":[1E0,2.3219269E-2,5.5E-1,7.487597E-2,-3.5301786E-2,1E0,1.2405492E-4,7.478107E-2,-3.7525836E-2,1.3104291E-5,-3.7529763E-2,-3.752662E-2,7.376201E-2],"split_indices":[6,0,10,0,0,4,0,0,0,0,0,0,0],"split_type":[0,0,0,0,0,0,0,0,0,0,0,0,0],"sum_hessian":[1.0139253E5,3.2646986E4,6.874555E4,3.2631148E4,1.5839443E1,8.799989E3,5.994556E4,7.693915E2,8.0305977E3,9.700986E3,5.024457E4,9.634907E3,6.607977E1],"tree_param":{"num_deleted":"0","num_feature":"21","num_nodes":"13","size_leaf_vector":"1"}},{"base_weights":[-1.6956769E-2,-7.4663347E-1,1.3872478E0,-3.748547E-2,-2.441164E-1,-4.7515577E-1,1.4283984E0,8.4698147E-1,-3.734947E-2,3.512451E-2,-3.7407976E-2,1.4456726E0,-3.7343606E-2,-3.525748E-2,1.0747552E0,-3.72161E-2,9.3724114E-1,7.5049E-2,1.4184647E0,7.8600055E-1,7.341646E-2,-3.572951E-2,6.408757E-2,-3.694121E-2,1.4251144E0,6.345054E-2,-3.525748E-2,6.2313434E-2,7.366379E-2],"categories":[],"categories_nodes":[],"categories_segments":[],"categories_sizes":[],"default_left":[0,0,0,0,0,0,0,0,0,0,0,0,0,0,0,0,0,0,0,0,0,0,0,0,0,0,0,0,0],"id":1,"left_children":[1,3,5,-1,7,9,11,13,-1,15,-1,17,-1,-1,19,-1,21,-1,23,25,-1,-1,-1,-1,27,-1,-1,-1,-1],"loss_changes":[1.0204371E5,1.0111328E2,2.6106406E3,0E0,2.2021399E2,1.0268977E2,1.2531016E3,4.5559326E1,0E0,1.8197731E2,0E0,4.7617188E1,0E0,0E0,1.1449692E1,0E0,6.9172874E1,0E0,3.1916797E2,4.8518818E1,0E0,0E0,0E0,0E0,1.8858594E2,0E0,0E0,0E0,0E0],"parents":[2147483647,0,0,1,1,2,2,4,4,5,5,6,6,7,7,9,9,11,11,14,14,16,16,18,18,19,19,24,24],"right_children":[2,4,6,-1,8,10,12,14,-1,16,-1,18,-1,-1,20,-1,22,-1,24,26,-1,-1,-1,-1,28,-1,-1,-1,-1],"split_conditions":[2E0,2.65E0,1E0,-3.748547E-2,7.44295E5,1E0,3.6E5,3.82112E5,-3.734947E-2,1.36E4,-3.7407976E-2,8E3,-3.7343606E-2,-3.525748E-2,6.56404E5,-3.72161E-2,9E-1,7.5049E-2,8.6E3,1.1E4,7.341646E-2,-3.572951E-2,6.408757E-2,-3.694121E-2,1.15E4,6.345054E-2,-3.525748E-2,6.2313434E-2,7.366379E-2],"split_indices":[20,15,18,0,17,2,8,17,0,8,0,8,0,0,17,0,13,0,8,8,0,0,0,0,8,0,0,0,0],"split_type":[0,0,0,0,0,0,0,0,0,0,0,0,0,0,0,0,0,0,0,0,0,0,0,0,0,0,0,0,0],"sum_hessian":[9.9590195E4,6.553582E4,3.405437E4,6.5136625E4,3.9919653E2,7.359515E2,3.331842E4,1.2572441E2,2.734721E2,2.568102E2,4.7914124E2,3.305625E4,2.621716E2,1.5820701E1,1.0990372E2,1.378661E2,1.18944115E2,1.0881882E4,2.2174367E4,6.512231E1,4.4781406E1,2.03409E1,9.860321E1,6.7803E1,2.2106564E4,4.9301605E1,1.5820701E1,4.6957944E3,1.741077E4],"tree_param":{"num_deleted":"0","num_feature":"21","num_nodes":"29","size_leaf_vector":"1"}},{"base_weights":[-1.4440892E-3,-4.0702498E-1,1.4162586E0,-5.62353E-1,4.5891514E-1,7.506221E-2,9.414719E-1,-5.852808E-1,7.496346E-2,-3.7476692E-2,7.505442E-2,-3.743925E-2,7.503682E-2,-6.276459E-1,3.4215257E-1,-3.7482105E-2,-5.34593E-1,6.3761905E-2,7.493137E-2,7.149531E-2,-3.532521E-2,4.3001436E-2,-2.4278712E-2],"categories":[],"categories_nodes":[],"categories_segments":[],"categories_sizes":[],"default_left":[0,0,0,0,0,0,0,0,0,0,0,0,0,0,0,0,0,0,0,0,0,0,0],"id":2,"left_children":[1,3,5,7,9,-1,11,13,-1,-1,-1,-1,-1,15,17,-1,19,21,-1,-1,-1,-1,-1],"loss_changes":[5.79374E4,1.0538426E4,9.029883E2,3.1410195E3,1.5009224E4,0E0,3.2204502E3,2.581709E3,0E0,0E0,0E0,0E0,0E0,7.128789E2,9.241675E2,0E0,1.2040012E4,1.0129816E3,0E0,0E0,0E0,0E0,0E0],"parents":[2147483647,0,0,1,1,2,2,3,3,4,4,6,6,7,7,13,13,14,14,16,16,17,17],"right_children":[2,4,6,8,10,-1,12,14,-1,-1,-1,-1,-1,16,18,-1,20,22,-1,-1,-1,-1,-1],"split_conditions":[2E0,1E0,9.5E-1,1.4E1,1E0,7.506221E-2,1E0,1E0,7.496346E-2,-3.7476692E-2,7.505442E-2,-3.743925E-2,7.503682E-2,4.5E-1,1.71E4,-3.7482105E-2,2E0,1.15E4,7.493137E-2,7.149531E-2,-3.532521E-2,4.3001436E-2,-2.4278712E-2],"split_indices":[9,14,5,6,6,0,2,3,0,0,0,0,0,15,8,0,20,8,0,0,0,0,0],"split_type":[0,0,0,0,0,0,0,0,0,0,0,0,0,0,0,0,0,0,0,0,0,0,0],"sum_hessian":[1.007599E5,7.834689E4,2.2413014E4,6.643115E4,1.1915738E4,1.9008402E4,3.4046113E3,6.570119E4,7.2996246E2,5.5178325E3,6.3979062E3,8.4635284E2,2.5582585E3,6.2831375E4,2.8698118E3,2.7184434E4,3.564694E4,2.3138652E3,5.5594666E2,2.867825E3,3.2779117E4,9.443938E2,1.3694714E3],"tree_param":{"num_deleted":"0","num_feature":"21","num_nodes":"23","size_leaf_vector":"1"}},{"base_weights":[3.350196E-4,1.1376503E0,-7.079453E-1,-2.2702959E-1,1.3250453E0,-3.8473567E-1,-7.340025E-1,1.1297972E0,-3.681478E-2,1.3876143E0,-3.6788743E-2,8.959243E-1,-3.68156E-2,-7.2000587E-1,-3.6827754E-2,1.3610188E0,-3.6564015E-2,1.3897768E0,-3.5830926E-2,-3.666673E-2,6.949126E-2,-3.682215E-2,6.8660125E-2,1.3776492E0,-3.3095393E-2,6.953922E-2,-3.4597307E-2,6.951401E-2,3.3683155E-2],"categories":[],"categories_nodes":[],"categories_segments":[],"categories_sizes":[],"default_left":[0,0,0,0,0,0,0,0,0,0,0,0,0,0,0,0,0,0,0,0,0,0,0,0,0,0,0,0,0],"id":3,"left_children":[1,3,5,7,9,11,13,15,-1,17,-1,19,-1,21,-1,23,-1,25,-1,-1,-1,-1,-1,27,-1,-1,-1,-1,-1],"loss_changes":[8.071102E4,9.833723E3,5.1971875E2,3.209391E3,4.360492E3,2.075632E3,1.5117188E0,5.464768E2,0E0,1.503164E2,0E0,8.001588E2,0E0,3.0576074E2,0E0,3.8856445E1,0E0,6.972266E1,0E0,0E0,0E0,0E0,0E0,9.013672E0,0E0,0E0,0E0,0E0,0E0],"parents":[2147483647,0,0,1,1,2,2,3,3,4,4,5,5,6,6,7,7,9,9,11,11,13,13,15,15,17,17,23,23],"right_children":[2,4,6,8,10,12,14,16,-1,18,-1,20,-1,22,-1,24,-1,26,-1,-1,-1,-1,-1,28,-1,-1,-1,-1,-1],"split_conditions":[1E-1,1.3104291E-5,5.5E-1,1.2504189E-5,0E0,1.2405492E-4,1.2405492E-4,0E0,-3.681478E-2,2.3219269E-2,-3.6788743E-2,1.0618799E-5,-3.68156E-2,1.3104291E-5,-3.6827754E-2,5.5E-1,-3.6564015E-2,5.5E-1,-3.5830926E-2,-3.666673E-2,6.949126E-2,-3.682215E-2,6.8660125E-2,1E0,-3.3095393E-2,6.953922E-2,-3.4597307E-2,6.951401E-2,3.3683155E-2],"split_indices":[15,0,10,0,12,0,0,12,0,0,0,0,0,0,0,10,0,10,0,0,0,0,0,11,0,0,0,0,0],"split_type":[0,0,0,0,0,0,0,0,0,0,0,0,0,0,0,0,0,0,0,0,0,0,0,0,0,0,0,0,0],"sum_hessian":[1.0019318E5,3.8450695E4,6.174249E4,4.6424517E3,3.3808242E4,4.6074927E3,5.7134996E4,1.2666156E3,3.3758362E3,3.2812348E4,9.9589374E2,9.920995E2,3.6153933E3,8.856355E3,4.827864E4,1.12688E3,1.3973564E2,3.2779E4,3.3348896E1,2.3067471E2,7.6142474E2,8.787995E3,6.836057E1,1.1180078E3,8.872102E0,3.2763473E4,1.5526161E1,1.0973444E3,2.0663433E1],"tree_param":{"num_deleted":"0","num_feature":"21","num_nodes":"29","size_leaf_vector":"1"}},{"base_weights":[3.759846E-3,-3.680719E-2,1.3517532E0,-1.4880984E-1,1.3804067E0,-3.7192624E-2,2.1214134E-1,-3.6394265E-2,6.926239E-2,4.9451563E-1,-3.706799E-2,6.0857904E-1,-3.6140814E-2,2.0528778E-3,5.2040108E-2],"categories":[],"categories_nodes":[],"categories_segments":[],"categories_sizes":[],"default_left":[0,0,0,0,0,0,0,0,0,0,0,0,0,0,0],"id":4,"left_children":[1,-1,3,5,7,-1,9,-1,-1,11,-1,13,-1,-1,-1],"loss_changes":[1.0045769E5,0E0,1.5348828E3,1.43997E2,3.584922E2,0E0,1.1280899E2,0E0,0E0,4.52621E1,0E0,7.2489044E1,0E0,0E0,0E0],"parents":[2147483647,0,0,2,2,3,3,4,4,6,6,9,9,11,11],"right_children":[2,-1,4,6,8,-1,10,-1,-1,12,-1,14,-1,-1,-1],"split_conditions":[9.9993896E-1,-3.680719E-2,1E0,9E-1,1E0,-3.7192624E-2,1E0,-3.6394265E-2,6.926239E-2,1.71E4,-3.706799E-2,1.33E4,-3.6140814E-2,2.0528778E-3,5.2040108E-2],"split_indices":[0,0,18,13,19,0,0,0,0,8,0,8,0,0,0],"split_type":[0,0,0,0,0,0,0,0,0,0,0,0,0,0,0],"sum_hessian":[1.0071906E5,6.502679E4,3.569227E4,6.687006E2,3.502357E4,2.520784E2,4.1662225E2,7.9896484E1,3.494367E4,3.2180328E2,9.481897E1,2.9469095E2,2.711233E1,1.27878174E2,1.6681277E2],"tree_param":{"num_deleted":"0","num_feature":"21","num_nodes":"15","size_leaf_vector":"1"}},{"base_weights":[5.3470624E-3,-6.284519E-1,1.3979602E0,-3.678111E-2,-5.3268784E-1,6.975862E-2,7.294472E-2,6.974049E-2,-6.8184185E-1,8.510109E-1,-7.162312E-1,-2.2094691E-1,1.1394033E0,2.1924217E-1,-3.6837656E-2,-2.539486E-2,7.111117E-2,7.364108E-2,3.784359E-2,-2.4177862E-2,6.463394E-2],"categories":[],"categories_nodes":[],"categories_segments":[],"categories_sizes":[],"default_left":[0,0,0,0,0,0,0,0,0,0,0,0,0,0,0,0,0,0,0,0,0],"id":5,"left_children":[1,3,5,-1,7,-1,-1,-1,9,11,13,15,17,19,-1,-1,-1,-1,-1,-1,-1],"loss_changes":[8.8334766E4,7.054844E2,3.2851562E0,0E0,1.0444389E4,0E0,0E0,0E0,1.7779805E3,2.2911249E2,6.332617E2,7.511735E1,7.330945E1,5.3527106E2,0E0,0E0,0E0,0E0,0E0,0E0,0E0],"parents":[2147483647,0,0,1,1,2,2,4,4,8,8,9,9,10,10,11,11,12,12,13,13],"right_children":[2,4,6,-1,8,-1,-1,-1,10,12,14,16,18,20,-1,-1,-1,-1,-1,-1,-1],"split_conditions":[1E0,2.083846E-3,2E0,-3.678111E-2,2.5376624E-3,6.975862E-2,7.294472E-2,6.974049E-2,1E0,9.9997675E-1,2E0,3E0,1.36E4,7.44295E5,-3.6837656E-2,-2.539486E-2,7.111117E-2,7.364108E-2,3.784359E-2,-2.4177862E-2,6.463394E-2],"split_indices":[4,0,20,0,0,0,0,0,18,0,20,20,8,17,0,0,0,0,0,0,0],"split_type":[0,0,0,0,0,0,0,0,0,0,0,0,0,0,0,0,0,0,0,0,0],"sum_hessian":[1.0007854E5,6.8777445E4,3.130109E4,3.24527E4,3.632475E4,2.995444E4,1.346651E3,2.6083994E3,3.3716348E4,7.393035E2,3.2977047E4,1.5678093E2,5.825226E2,7.0769354E2,3.2269352E4,1.3406055E2,2.2720373E1,3.0971863E2,2.7280396E2,4.280141E2,2.7967947E2],"tree_param":{"num_deleted":"0","num_feature":"21","num_nodes":"21","size_leaf_vector":"1"}},{"base_weights":[-1.6860698E-3,1.3006134E0,-6.9526464E-1,6.5082945E-2,-3.4973077E-2,-5.276091E-1,-7.208511E-1,6.50092E-2,-3.616127E-2,-7.080228E-1,-3.6167525E-2,-3.6159363E-2,6.425777E-2],"categories":[],"categories_nodes":[],"categories_segments":[],"categories_sizes":[],"default_left":[0,0,0,0,0,0,0,0,0,0,0,0,0],"id":6,"left_children":[1,3,5,-1,-1,7,9,-1,-1,11,-1,-1,-1],"loss_changes":[9.031098E4,7.356641E1,2.7947852E2,0E0,0E0,3.0908037E3,1.3046875E0,0E0,0E0,2.8130762E2,0E0,0E0,0E0],"parents":[2147483647,0,0,1,1,2,2,5,5,6,6,9,9],"right_children":[2,4,6,-1,-1,8,10,-1,-1,12,-1,-1,-1],"split_conditions":[1E0,2.3219269E-2,5.5E-1,6.5082945E-2,-3.4973077E-2,1E0,1.2405492E-4,6.50092E-2,-3.616127E-2,1.3104291E-5,-3.6167525E-2,-3.6159363E-2,6.425777E-2],"split_indices":[6,0,10,0,0,4,0,0,0,0,0,0,0],"split_type":[0,0,0,0,0,0,0,0,0,0,0,0,0],"sum_hessian":[9.998281E4,3.4744273E4,6.523854E4,3.472647E4,1.7803282E1,8.640863E3,5.6597676E4,8.3482294E2,7.80604E3,9.27526E3,4.7322414E4,9.205857E3,6.940243E1],"tree_param":{"num_deleted":"0","num_feature":"21","num_nodes":"13","size_leaf_vector":"1"}},{"base_weights":[3.296522E-3,-7.194744E-1,1.2131811E0,-3.61281E-2,-2.0679975E-1,1.2842786E0,-3.7058424E-2,4.119001E-1,-3.6519255E-2,-3.667754E-2,1.2962883E0,7.462743E-1,-3.5416227E-2,1.2692295E0,6.537809E-2,-3.560048E-2,1.0460916E0,6.539106E-2,1.2268488E0,7.157255E-2,3.797558E-2,5.937466E-3,6.540787E-2],"categories":[],"categories_nodes":[],"categories_segments":[],"categories_sizes":[],"default_left":[0,0,0,0,0,0,0,0,0,0,0,0,0,0,0,0,0,0,0,0,0,0,0],"id":7,"left_children":[1,3,5,-1,7,9,-1,11,-1,-1,13,15,-1,17,-1,-1,19,-1,21,-1,-1,-1,-1],"loss_changes":[8.741962E4,9.891406E1,5.1957344E3,0E0,1.221205E2,8.7514844E2,0E0,6.533364E1,0E0,0E0,9.277344E0,5.92125E1,0E0,1.5699219E1,0E0,0E0,1.1207283E1,0E0,4.556548E2,0E0,0E0,0E0,0E0],"parents":[2147483647,0,0,1,1,2,2,4,4,5,5,7,7,10,10,11,11,13,13,16,16,18,18],"right_children":[2,4,6,-1,8,10,-1,12,-1,-1,14,16,-1,18,-1,-1,20,-1,22,-1,-1,-1,-1],"split_conditions":[2E0,2.65E0,1E0,-3.61281E-2,8.0823E4,1.85E0,-3.7058424E-2,1E0,-3.6519255E-2,-3.667754E-2,8.0823E4,1E4,-3.5416227E-2,9E-1,6.537809E-2,-3.560048E-2,1.1E4,6.539106E-2,2.85E0,7.157255E-2,3.797558E-2,5.937466E-3,6.540787E-2],"split_indices":[20,15,4,0,16,15,0,4,0,0,16,8,0,13,0,0,8,0,15,0,0,0,0],"split_type":[0,0,0,0,0,0,0,0,0,0,0,0,0,0,0,0,0,0,0,0,0,0,0],"sum_hessian":[9.996676E4,6.2581633E4,3.738513E4,6.220658E4,3.7505374E2,3.607316E4,1.3119656E3,1.7200987E2,2.0304387E2,2.1307272E2,3.586009E4,1.3272638E2,3.9283485E1,1.0579922E4,2.5280168E4,2.2400003E1,1.1032638E2,5.5218755E3,5.0580464E3,4.5350025E1,6.497635E1,3.4593933E2,4.712107E3],"tree_param":{"num_deleted":"0","num_feature":"21","num_nodes":"23","size_leaf_vector":"1"}},{"base_weights":[-1.7647897E-3,-6.169087E-1,1.3071067E0,-6.756797E-1,-1.4783855E-1,6.523533E-2,6.799104E-2,-3.612153E-2,-6.3957137E-1,-3.6116615E-2,6.5184124E-2,7.1166E-1,-6.940607E-1,-6.5543914E-1,1.225895E0,4.741013E-1,-3.6176022E-2,-3.619181E-2,6.485213E-2,6.584206E-2,4.3865222E-2,7.001349E-2,5.1090373E-3],"categories":[],"categories_nodes":[],"categories_segments":[],"categories_sizes":[],"default_left":[0,0,0,0,0,0,0,0,0,0,0,0,0,0,0,0,0,0,0,0,0,0,0],"id":8,"left_children":[1,3,5,7,9,-1,-1,-1,11,-1,-1,13,15,17,19,21,-1,-1,-1,-1,-1,-1,-1],"loss_changes":[8.070478E4,1.879709E3,2.2851562E0,1.0183203E2,6.333153E3,0E0,0E0,0E0,2.5184463E3,0E0,0E0,9.3307367E2,1.1316367E3,4.9432022E1,2.9406128E1,2.7860858E2,0E0,0E0,0E0,0E0,0E0,0E0,0E0],"parents":[2147483647,0,0,1,1,2,2,3,3,4,4,8,8,11,11,12,12,13,13,14,14,15,15],"right_children":[2,4,6,8,10,-1,-1,-1,12,-1,-1,14,16,18,20,22,-1,-1,-1,-1,-1,-1,-1],"split_conditions":[1E0,1E0,2E0,2.083846E-3,5.5E-1,6.523533E-2,6.799104E-2,-3.612153E-2,2E0,-3.6116615E-2,6.5184124E-2,1E0,6.328E3,2.3219269E-2,2.65E0,1.85E0,-3.6176022E-2,-3.619181E-2,6.485213E-2,6.584206E-2,4.3865222E-2,7.001349E-2,5.1090373E-3],"split_indices":[4,14,20,0,10,0,0,0,20,0,0,6,17,0,15,15,0,0,0,0,0,0,0],"split_type":[0,0,0,0,0,0,0,0,0,0,0,0,0,0,0,0,0,0,0,0,0,0,0],"sum_hessian":[1.0023441E5,6.818794E4,3.2046465E4,6.059536E4,7.592584E3,3.0675506E4,1.3709578E3,2.6397912E4,3.4197445E4,5.440002E3,2.1525818E3,1.3251119E3,3.2872332E4,3.6212482E2,9.629871E2,8.0823975E2,3.2064094E4,3.504766E2,1.1648219E1,7.6152893E2,2.0145819E2,2.3077972E2,5.7746E2],"tree_param":{"num_deleted":"0","num_feature":"21","num_nodes":"23","size_leaf_vector":"1"}},{"base_weights":[-5.872223E-3,1.2235377E0,-6.8332803E-1,6.1224766E-2,-3.4352362E-2,-5.133502E-1,-7.085245E-1,6.115925E-2,-3.5536196E-2,-6.957581E-1,-3.5547234E-2,-3.5535526E-2,6.049613E-2],"categories":[],"categories_nodes":[],"categories_segments":[],"categories_sizes":[],"default_left":[0,0,0,0,0,0,0,0,0,0,0,0,0],"id":9,"left_children":[1,3,5,-1,-1,7,9,-1,-1,11,-1,-1,-1],"loss_changes":[8.3393875E4,6.592578E1,2.761172E2,0E0,0E0,2.8585408E3,1.2421875E0,0E0,0E0,2.574829E2,0E0,0E0,0E0],"parents":[2147483647,0,0,1,1,2,2,5,5,6,6,9,9],"right_children":[2,4,6,-1,-1,8,10,-1,-1,12,-1,-1,-1],"split_conditions":[0E0,2.3219269E-2,5.5E-1,6.1224766E-2,-3.4352362E-2,1E0,1.2405492E-4,6.115925E-2,-3.5536196E-2,1.3104291E-5,-3.5547234E-2,-3.5535526E-2,6.049613E-2],"split_indices":[9,0,10,0,0,4,0,0,0,0,0,0,0],"split_type":[0,0,0,0,0,0,0,0,0,0,0,0,0],"sum_hessian":[1.0012621E5,3.5571742E4,6.455447E4,3.555428E4,1.7461086E1,8.336567E3,5.6217902E4,8.502953E2,7.486272E3,9.00504E3,4.721286E4,8.935557E3,6.948332E1],"tree_param":{"num_deleted":"0","num_feature":"21","num_nodes":"13","size_leaf_vector":"1"}},{"base_weights":[7.3721807E-4,-3.5522517E-2,1.1895624E0,-1.4866629E-1,1.214309E0,-3.5949163E-2,1.8610106E-1,-3.5336178E-2,6.0908724E-2,4.231569E-1,-3.6590528E-2,5.51235E-1,-3.609277E-2,1.7612531E-4,4.9026486E-2],"categories":[],"categories_nodes":[],"categories_segments":[],"categories_sizes":[],"default_left":[0,0,0,0,0,0,0,0,0,0,0,0,0,0,0],"id":10,"left_children":[1,-1,3,5,7,-1,9,-1,-1,11,-1,13,-1,-1,-1],"loss_changes":[8.391587E4,0E0,1.2304961E3,1.2908594E2,2.7172656E2,0E0,9.3090416E1,0E0,0E0,5.0186974E1,0E0,7.192711E1,0E0,0E0,0E0],"parents":[2147483647,0,0,2,2,3,3,4,4,6,6,9,9,11,11],"right_children":[2,-1,4,6,8,-1,10,-1,-1,12,-1,14,-1,-1,-1],"split_conditions":[9.9993896E-1,-3.5522517E-2,1E0,9E-1,1E0,-3.5949163E-2,1E0,-3.5336178E-2,6.0908724E-2,1.71E4,-3.6590528E-2,1.36E4,-3.609277E-2,1.7612531E-4,4.9026486E-2],"split_indices":[0,0,18,13,19,0,0,0,0,8,0,8,0,0,0],"split_type":[0,0,0,0,0,0,0,0,0,0,0,0,0,0,0],"sum_hessian":[9.9250625E4,6.21007E4,3.7149926E4,6.744127E2,3.647551E4,2.4902338E2,4.2538934E2,7.288302E1,3.640263E4,3.3850702E2,8.688234E1,3.049182E2,3.3588795E1,1.3442334E2,1.7049487E2],"tree_param":{"num_deleted":"0","num_feature":"21","num_nodes":"15","size_leaf_vector":"1"}},{"base_weights":[6.927228E-3,-6.044682E-1,1.2292975E0,-3.5500977E-2,-5.10633E-1,6.1357E-2,6.37754E-2,9.8345673E-1,-6.813917E-1,-6.3452893E-1,1.1755295E0,5.8343965E-1,-3.5552744E-2,-3.556914E-2,6.1814934E-2,6.1489042E-2,5.435653E-1,6.546553E-2,2.480445E-1,-2.8080463E-2,6.368965E-2,-3.5558652E-2,2.2583453E-2],"categories":[],"categories_nodes":[],"categories_segments":[],"categories_sizes":[],"default_left":[0,0,0,0,0,0,0,0,0,0,0,0,0,0,0,0,0,0,0,0,0,0,0],"id":11,"left_children":[1,3,5,-1,7,-1,-1,9,11,13,15,17,-1,-1,-1,-1,19,-1,21,-1,-1,-1,-1],"loss_changes":[7.377236E4,6.5135156E2,1.71875E0,0E0,8.888574E3,0E0,0E0,1.1112961E3,1.1734219E3,5.5494644E1,1.0886084E2,1.742239E2,0E0,0E0,0E0,0E0,2.0599075E2,0E0,9.6343925E1,0E0,0E0,0E0,0E0],"parents":[2147483647,0,0,1,1,2,2,4,4,7,7,8,8,9,9,10,10,11,11,16,16,18,18],"right_children":[2,4,6,-1,8,-1,-1,10,12,14,16,18,-1,-1,-1,-1,20,-1,22,-1,-1,-1,-1],"split_conditions":[1E0,2.083846E-3,2E0,-3.5500977E-2,2E0,6.1357E-2,6.37754E-2,1E0,6.328E3,2.3219269E-2,2.65E0,1.85E0,-3.5552744E-2,-3.556914E-2,6.1814934E-2,6.1489042E-2,7.44295E5,6.546553E-2,9E-1,-2.8080463E-2,6.368965E-2,-3.5558652E-2,2.2583453E-2],"split_indices":[4,0,20,0,20,0,0,6,17,0,15,15,0,0,0,0,17,0,13,0,0,0,0],"split_type":[0,0,0,0,0,0,0,0,0,0,0,0,0,0,0,0,0,0,0,0,0,0,0],"sum_hessian":[9.870972E4,6.579927E4,3.291045E4,3.0963336E4,3.4835934E4,3.1468707E4,1.441742E3,3.572533E3,3.12634E4,3.7885178E2,3.1936812E3,7.159689E2,3.0547432E4,3.6449792E2,1.435386E1,2.9403218E3,2.5335931E2,2.253521E2,4.9061676E2,1.0089266E2,1.5246666E2,8.547513E1,4.0514163E2],"tree_param":{"num_deleted":"0","num_feature":"21","num_nodes":"23","size_leaf_vector":"1"}},{"base_weights":[-2.543575E-3,1.1571395E0,-6.717527E-1,5.788472E-2,-3.268385E-2,-5.066602E-1,-6.9677997E-1,-3.4949515E-2,-1.5962979E-1,-6.841834E-1,-3.4959745E-2,5.782488E-2,-3.4935564E-2,-3.4948736E-2,5.7209898E-2],"categories":[],"categories_nodes":[],"categories_segments":[],"categories_sizes":[],"default_left":[0,0,0,0,0,0,0,0,0,0,0,0,0,0,0],"id":12,"left_children":[1,3,5,-1,-1,7,9,-1,11,13,-1,-1,-1,-1,-1],"loss_changes":[7.6559125E4,3.701172E1,2.5810352E2,0E0,0E0,5.497339E2,1.1738281E0,0E0,2.085962E3,2.3836377E2,0E0,0E0,0E0,0E0,0E0],"parents":[2147483647,0,0,1,1,2,2,5,5,6,6,8,8,9,9],"right_children":[2,4,6,-1,-1,8,10,-1,12,14,-1,-1,-1,-1,-1],"split_conditions":[1E0,2.3219269E-2,5.5E-1,5.788472E-2,-3.268385E-2,9.5E-1,1.2405492E-4,-3.4949515E-2,1.2405492E-4,1.3104291E-5,-3.4959745E-2,5.782488E-2,-3.4935564E-2,-3.4948736E-2,5.7209898E-2],"split_indices":[6,0,10,0,0,5,0,0,0,0,0,0,0,0,0],"split_type":[0,0,0,0,0,0,0,0,0,0,0,0,0,0,0],"sum_hessian":[9.864769E4,3.6095863E4,6.2551824E4,3.608517E4,1.0693079E1,8.237081E3,5.4314742E4,5.2991753E3,2.9379062E3,8.783286E3,4.5531457E4,8.533559E2,2.0845505E3,8.713413E3,6.987244E1],"tree_param":{"num_deleted":"0","num_feature":"21","num_nodes":"15","size_leaf_vector":"1"}},{"base_weights":[3.937676E-3,-6.969744E-1,1.0831127E0,-3.4924965E-2,-4.0488538E-1,1.1424317E0,-3.571872E-2,8.705579E-1,-3.5879906E-2,3.2785072E-4,5.8133222E-2,-3.366289E-2,6.4420074E-2,-3.5403118E-2,3.260548E-1,5.8163494E-2,8.829025E-2,-4.554471E-3,5.861303E-2],"categories":[],"categories_nodes":[],"categories_segments":[],"categories_sizes":[],"default_left":[0,0,0,0,0,0,0,0,0,0,0,0,0,0,0,0,0,0,0],"id":13,"left_children":[1,3,5,-1,7,9,-1,11,-1,13,-1,-1,-1,-1,15,-1,17,-1,-1],"loss_changes":[7.474308E4,2.6398438E1,4.149379E3,0E0,1.25663414E2,8.703672E2,0E0,4.097872E1,0E0,1.5174443E2,0E0,0E0,0E0,0E0,8.9572586E1,0E0,6.853788E1,0E0,0E0],"parents":[2147483647,0,0,1,1,2,2,4,4,5,5,7,7,9,9,14,14,16,16],"right_children":[2,4,6,-1,8,10,-1,12,-1,14,-1,-1,-1,-1,16,-1,18,-1,-1],"split_conditions":[2E0,2.65E0,1E0,-3.4924965E-2,3.98729E5,6.328E3,-3.571872E-2,3.82112E5,-3.5879906E-2,1.85E0,5.8133222E-2,-3.366289E-2,6.4420074E-2,-3.5403118E-2,9E-1,5.8163494E-2,2.85E0,-4.554471E-3,5.861303E-2],"split_indices":[20,15,4,0,17,17,0,17,0,15,0,0,0,0,13,0,15,0,0],"split_type":[0,0,0,0,0,0,0,0,0,0,0,0,0,0,0,0,0,0,0],"sum_hessian":[9.881134E4,5.990444E4,3.8906906E4,5.959194E4,3.125001E2,3.766431E4,1.2425991E3,6.118097E1,2.5131912E2,6.5563684E2,3.700867E4,1.2901661E1,4.827931E1,2.0614323E2,4.4949362E2,9.855828E1,3.5093536E2,3.0189288E2,4.904246E1],"tree_param":{"num_deleted":"0","num_feature":"21","num_nodes":"19","size_leaf_vector":"1"}},{"base_weights":[6.014109E-4,-3.3047077E-1,5.798033E-2,-4.2567733E-1,7.6024634E-1,-5.748289E-1,3.2594213E-1,5.839751E-2,-6.38349E-1,-3.4918766E-2,-4.7893125E-1,-3.4911845E-2,5.7971247E-2,6.35283E-2,-6.869888E-1,1.0826707E0,-6.520967E-1,6.126472E-2,-3.5250317E-2,-3.43007E-2,5.5563923E-2,4.767666E-2,-3.419319E-2],"categories":[],"categories_nodes":[],"categories_segments":[],"categories_sizes":[],"default_left":[0,0,0,0,0,0,0,0,0,0,0,0,0,0,0,0,0,0,0,0,0,0,0],"id":14,"left_children":[1,3,-1,5,7,9,11,-1,13,-1,15,-1,-1,-1,17,19,21,-1,-1,-1,-1,-1,-1],"loss_changes":[3.747696E4,7.8891416E3,0E0,7.833009E3,3.4785527E3,6.9041016E2,9.877292E3,0E0,1.2875385E2,0E0,8.877545E3,0E0,0E0,0E0,4.716156E1,1.6657935E2,1.5079141E3,0E0,0E0,0E0,0E0,0E0,0E0],"parents":[2147483647,0,0,1,1,3,3,4,4,5,5,6,6,8,8,10,10,14,14,15,15,16,16],"right_children":[2,4,-1,6,8,10,12,-1,14,-1,16,-1,-1,-1,18,20,22,-1,-1,-1,-1,-1,-1],"split_conditions":[1.4E1,1E0,5.798033E-2,1E0,9.302476E-1,5.5E-1,5.5E-1,5.839751E-2,1E0,-3.4918766E-2,2E0,-3.4911845E-2,5.7971247E-2,6.35283E-2,2E0,0E0,1E0,6.126472E-2,-3.5250317E-2,-3.43007E-2,5.5563923E-2,4.767666E-2,-3.419319E-2],"split_indices":[6,3,0,14,0,10,10,0,18,0,20,0,0,0,20,12,18,0,0,0,0,0,0],"split_type":[0,0,0,0,0,0,0,0,0,0,0,0,0,0,0,0,0,0,0,0,0,0,0],"sum_hessian":[9.7666914E4,7.596739E4,2.1699523E4,6.986925E4,6.09814E3,5.8300344E4,1.1568905E4,4.721843E3,1.3762971E3,2.5474678E4,3.2825664E4,5.1907285E3,6.378177E3,3.357296E1,1.3427242E3,3.2761519E3,2.9549514E4,1.1907678E1,1.3308165E3,5.1781044E1,3.2243708E3,5.7272723E2,2.8976785E4],"tree_param":{"num_deleted":"0","num_feature":"21","num_nodes":"23","size_leaf_vector":"1"}},{"base_weights":[-4.5943563E-3,1.0988839E0,-6.6095537E-1,5.4970086E-2,-3.2120194E-2,-4.9972978E-1,-6.857091E-1,-1.6675207E-1,-3.4397192E-2,-6.7269635E-1,-3.441077E-2,5.491524E-2,-3.43816E-2,-3.439719E-2,5.4590262E-2],"categories":[],"categories_nodes":[],"categories_segments":[],"categories_sizes":[],"default_left":[0,0,0,0,0,0,0,0,0,0,0,0,0,0,0],"id":15,"left_children":[1,3,5,-1,-1,7,9,11,-1,13,-1,-1,-1,-1,-1],"loss_changes":[7.075271E4,3.3566406E1,2.4411719E2,0E0,0E0,5.1105774E2,1.2675781E0,1.9425205E3,0E0,2.3264648E2,0E0,0E0,0E0,0E0,0E0],"parents":[2147483647,0,0,1,1,2,2,5,5,6,6,7,7,9,9],"right_children":[2,4,6,-1,-1,8,10,12,-1,14,-1,-1,-1,-1,-1],"split_conditions":[1E0,2.3219269E-2,5.5E-1,5.4970086E-2,-3.2120194E-2,1.4E1,1.2405492E-4,1.2405492E-4,-3.4397192E-2,1.3104291E-5,-3.441077E-2,5.491524E-2,-3.43816E-2,-3.439719E-2,5.4590262E-2],"split_indices":[6,0,10,0,0,6,0,0,0,0,0,0,0,0,0],"split_type":[0,0,0,0,0,0,0,0,0,0,0,0,0,0,0],"sum_hessian":[9.7684945E4,3.6432957E4,6.125199E4,3.6422492E4,1.0464715E1,8.1554297E3,5.309656E4,2.9457898E3,5.20964E3,8.61831E3,4.447825E4,8.588351E2,2.0869546E3,8.545079E3,7.322975E1],"tree_param":{"num_deleted":"0","num_feature":"21","num_nodes":"15","size_leaf_vector":"1"}},{"base_weights":[3.412375E-3,-6.843605E-1,1.032463E0,-3.4371033E-2,-6.3957435E-1,-3.0991775E-1,1.0576134E0,-3.4387372E-2,-3.943596E-1,-3.546346E-2,6.490536E-2,1.0945458E0,4.3559384E-1,6.679051E-1,-3.5255127E-2,7.568221E-1,-3.0696717E-1,1.0844584E0,5.5173E-2,6.9345784E-1,-3.462376E-2,-3.4499027E-2,9.381408E-1,-3.300518E-2,9.428058E-1,6.2302047E-1,-3.5346832E-2,5.5160314E-2,9.8371553E-1,5.591751E-2,1.026007E0,5.8286864E-2,-3.2501455E-2,5.803716E-2,3.7823394E-2,-3.296003E-2,4.7715545E-2,-3.4042656E-2,4.9611364E-2,5.642717E-2,-3.5215523E-2,5.1796325E-2,-3.1238167E-2],"categories":[],"categories_nodes":[],"categories_segments":[],"categories_sizes":[],"default_left":[0,0,0,0,0,0,0,0,0,0,0,0,0,0,0,0,0,0,0,0,0,0,0,0,0,0,0,0,0,0,0,0,0,0,0,0,0,0,0,0,0,0,0],"id":16,"left_children":[1,3,5,-1,7,9,11,-1,13,-1,15,17,19,21,-1,23,25,27,-1,29,-1,-1,31,-1,33,35,-1,-1,37,39,41,-1,-1,-1,-1,-1,-1,-1,-1,-1,-1,-1,-1],"loss_changes":[6.892464E4,7.5625E0,1.3174688E3,0E0,4.3999634E1,1.0756095E2,8.7928516E2,0E0,2.043695E2,0E0,9.580283E1,2.0585938E0,6.253224E2,5.2135406E1,0E0,3.4914963E1,9.056751E1,3.1052734E1,0E0,3.7073016E2,0E0,0E0,4.3210884E1,0E0,3.8100967E0,3.1808554E1,0E0,0E0,3.8634033E1,4.9053204E2,1.946643E1,0E0,0E0,0E0,0E0,0E0,0E0,0E0,0E0,0E0,0E0,0E0,0E0],"parents":[2147483647,0,0,1,1,2,2,4,4,5,5,6,6,8,8,10,10,11,11,12,12,13,13,15,15,16,16,17,17,19,19,22,22,24,24,25,25,28,28,29,29,30,30],"right_children":[2,4,6,-1,8,10,12,-1,14,-1,16,18,20,22,-1,24,26,28,-1,30,-1,-1,32,-1,34,36,-1,-1,38,40,42,-1,-1,-1,-1,-1,-1,-1,-1,-1,-1,-1,-1],"split_conditions":[2E0,9.5E-1,1E0,-3.4371033E-2,3.82112E5,1.36E4,1E0,-3.4387372E-2,7.44295E5,-3.546346E-2,1E0,1E4,1.71E4,1.06E4,-3.5255127E-2,9E-1,1.42E4,9.7E3,5.5173E-2,1.15E4,-3.462376E-2,-3.4499027E-2,1E0,-3.300518E-2,3E0,9E-1,-3.5346832E-2,5.5160314E-2,5.41666E5,7.2E3,1.2577964E7,5.8286864E-2,-3.2501455E-2,5.803716E-2,3.7823394E-2,-3.296003E-2,4.7715545E-2,-3.4042656E-2,4.9611364E-2,5.642717E-2,-3.5215523E-2,5.1796325E-2,-3.1238167E-2],"split_indices":[20,5,18,0,17,8,3,0,17,0,2,8,8,8,0,13,8,8,0,8,0,0,3,0,20,13,0,0,17,8,16,0,0,0,0,0,0,0,0,0,0,0,0],"split_type":[0,0,0,0,0,0,0,0,0,0,0,0,0,0,0,0,0,0,0,0,0,0,0,0,0,0,0,0,0,0,0,0,0,0,0,0,0,0,0,0,0,0,0],"sum_hessian":[9.738316E4,5.8370906E4,3.9012254E4,5.4624188E4,3.7467153E3,7.172689E2,3.8294984E4,3.1300117E3,6.1670374E2,3.4683975E2,3.7042914E2,3.6147938E4,2.1470476E3,1.3931398E2,4.7738977E2,1.2913036E2,2.412988E2,1.7015467E4,1.9132469E4,1.7478856E3,3.991619E2,2.286554E1,1.1644844E2,1.4687059E1,1.1444329E2,7.2400154E1,1.6889865E2,1.4337368E4,2.6780984E3,5.995802E2,1.1483054E3,1.0208491E2,1.4363531E1,5.0338764E1,6.410452E1,1.4662163E1,5.7737995E1,1.3222832E1,2.6648755E3,2.4849188E2,3.5108832E2,1.1418169E3,6.4886227E0],"tree_param":{"num_deleted":"0","num_feature":"21","num_nodes":"43","size_leaf_vector":"1"}},{"base_weights":[-8.257582E-3,-5.8673745E-1,5.5176225E-2,-6.4286655E-1,-1.4237869E-1,-4.7583964E-1,-6.617006E-1,-3.4362238E-2,5.5027883E-2,-6.8541455E-1,8.353563E-1,-6.862028E-1,-6.464751E-1,-3.4362786E-2,-5.460831E-1,5.7297178E-2,6.285063E-1,-3.436886E-2,5.4597117E-2,5.5084962E-2,-3.3525597E-2,-3.3771377E-2,-1.0251453E-3,2.6900878E-2,5.8527667E-2],"categories":[],"categories_nodes":[],"categories_segments":[],"categories_sizes":[],"default_left":[0,0,0,0,0,0,0,0,0,0,0,0,0,0,0,0,0,0,0,0,0,0,0,0,0],"id":17,"left_children":[1,3,-1,5,7,9,11,-1,-1,13,15,17,19,-1,21,-1,23,-1,-1,-1,-1,-1,-1,-1,-1],"loss_changes":[6.3211234E4,1.6123105E3,0E0,1.802461E2,4.9116636E3,1.5998323E3,1.8798828E1,0E0,0E0,9.121094E-1,5.0834717E1,4.199414E1,1.3381826E3,0E0,4.766304E0,0E0,2.3104767E1,0E0,0E0,0E0,0E0,0E0,0E0,0E0,0E0],"parents":[2147483647,0,0,1,1,3,3,4,4,5,5,6,6,9,9,10,10,11,11,12,12,14,14,16,16],"right_children":[2,4,-1,6,8,10,12,-1,-1,14,16,18,20,-1,22,-1,24,-1,-1,-1,-1,-1,-1,-1,-1],"split_conditions":[1E0,1E0,5.5176225E-2,1E0,5.5E-1,5.5E-1,5.5E-1,-3.4362238E-2,5.5027883E-2,1E0,9E-1,1E0,9.5E-1,-3.4362786E-2,1E0,5.7297178E-2,1.74E4,-3.436886E-2,5.4597117E-2,5.5084962E-2,-3.3525597E-2,-3.3771377E-2,-1.0251453E-3,2.6900878E-2,5.8527667E-2],"split_indices":[4,14,0,18,10,10,10,0,0,11,13,3,5,0,2,0,8,0,0,0,0,0,0,0,0],"split_type":[0,0,0,0,0,0,0,0,0,0,0,0,0,0,0,0,0,0,0,0,0,0,0,0,0],"sum_hessian":[9.82828E4,6.464653E4,3.363626E4,5.739611E4,7.2504204E3,5.818855E3,5.1577258E4,5.041031E3,2.2093896E3,5.01738E3,8.014753E2,1.9749934E4,3.1827322E4,4.948064E3,6.931616E1,3.185818E2,4.8289346E2,1.9737512E4,1.2421932E1,4.310719E2,3.139625E4,5.539776E1,1.3918404E1,4.1551968E2,6.7373795E1],"tree_param":{"num_deleted":"0","num_feature":"21","num_nodes":"25","size_leaf_vector":"1"}},{"base_weights":[2.907155E-3,1.0473944E0,-6.499461E-1,5.2408766E-2,-3.2758094E-2,-4.8575294E-1,-6.7527914E-1,-3.387601E-2,-1.4824422E-1,-6.6206133E-1,-3.389402E-2,5.235981E-2,-3.3861157E-2,-3.3877183E-2,5.22196E-2],"categories":[],"categories_nodes":[],"categories_segments":[],"categories_sizes":[],"default_left":[0,0,0,0,0,0,0,0,0,0,0,0,0,0,0],"id":18,"left_children":[1,3,5,-1,-1,7,9,-1,11,13,-1,-1,-1,-1,-1],"loss_changes":[6.5024914E4,4.9445312E1,2.4375586E2,0E0,0E0,5.0779016E2,1.3007812E0,0E0,1.7994344E3,2.2268677E2,0E0,0E0,0E0,0E0,0E0],"parents":[2147483647,0,0,1,1,2,2,5,5,6,6,8,8,9,9],"right_children":[2,4,6,-1,-1,8,10,-1,12,14,-1,-1,-1,-1,-1],"split_conditions":[1E0,2.3219269E-2,5.5E-1,5.2408766E-2,-3.2758094E-2,9.5E-1,1.2405492E-4,-3.387601E-2,1.2405492E-4,1.3104291E-5,-3.389402E-2,5.235981E-2,-3.3861157E-2,-3.3877183E-2,5.22196E-2],"split_indices":[6,0,10,0,0,5,0,0,0,0,0,0,0,0,0],"split_type":[0,0,0,0,0,0,0,0,0,0,0,0,0,0,0],"sum_hessian":[9.535685E4,3.6677164E4,5.867969E4,3.6660734E4,1.642924E1,7.846131E3,5.083356E4,5.002679E3,2.8434517E3,8.401011E3,4.2432547E4,8.7195013E2,1.9715016E3,8.326073E3,7.4937645E1],"tree_param":{"num_deleted":"0","num_feature":"21","num_nodes":"15","size_leaf_vector":"1"}},{"base_weights":[3.099243E-3,-3.3875246E-2,1.0209014E0,-1.1494221E-1,1.040417E0,-3.4260586E-2,1.8666296E-1,-2.0511833E-1,5.2634884E-2,9.8658913E-1,-1.0552672E-1,8.151911E-1,-3.5926457E-2,-3.496779E-2,1.2207133E0,-3.5902094E-2,3.16623E-1,-3.5278693E-2,5.7524394E-2,4.8224647E-2,7.57645E-2,2.9066334E-2,-3.5800103E-2],"categories":[],"categories_nodes":[],"categories_segments":[],"categories_sizes":[],"default_left":[0,0,0,0,0,0,0,0,0,0,0,0,0,0,0,0,0,0,0,0,0,0,0],"id":19,"left_children":[1,-1,3,5,7,-1,9,11,-1,13,15,17,-1,-1,19,-1,21,-1,-1,-1,-1,-1,-1],"loss_changes":[6.650379E4,0E0,8.5290625E2,1.120523E2,5.787383E2,0E0,9.977031E1,1.9446385E2,0E0,4.5923584E1,8.122119E1,6.422521E1,0E0,0E0,6.1332245E0,0E0,5.1291954E1,0E0,0E0,0E0,0E0,0E0,0E0],"parents":[2147483647,0,0,2,2,3,3,4,4,6,6,7,7,9,9,10,10,11,11,14,14,16,16],"right_children":[2,-1,4,6,8,-1,10,12,-1,14,16,18,-1,-1,20,-1,22,-1,-1,-1,-1,-1,-1],"split_conditions":[9.9993896E-1,-3.3875246E-2,1E0,9E-1,2E0,-3.4260586E-2,9.9997735E-1,7.44295E5,5.2634884E-2,9.9996126E-1,5E0,9E-1,-3.5926457E-2,-3.496779E-2,9.9997675E-1,-3.5902094E-2,7E0,-3.5278693E-2,5.7524394E-2,4.8224647E-2,7.57645E-2,2.9066334E-2,-3.5800103E-2],"split_indices":[0,0,18,13,20,0,0,17,0,0,20,13,0,0,0,0,20,0,0,0,0,0,0],"split_type":[0,0,0,0,0,0,0,0,0,0,0,0,0,0,0,0,0,0,0,0,0,0,0],"sum_hessian":[9.60018E4,5.75311E4,3.84707E4,6.497375E2,3.782096E4,2.243219E2,4.2541562E2,3.6911087E2,3.745185E4,1.1318181E2,3.122338E2,1.2336262E2,2.4574826E2,1.3558554E1,9.962326E1,1.2710736E2,1.8512643E2,2.2085915E1,1.012767E2,5.556631E1,4.4056946E1,1.4770158E2,3.7424862E1],"tree_param":{"num_deleted":"0","num_feature":"21","num_nodes":"23","size_leaf_vector":"1"}},{"base_weights":[-3.7457827E-3,-5.725753E-1,1.0521423E0,-3.3850864E-2,-4.8309305E-1,5.249911E-2,1.0861096E0,8.884333E-1,-6.412372E-1,5.9465688E-2,5.3334642E-2,-5.880702E-1,5.2790493E-2,3.9419207E-1,-6.569756E-1,-3.388872E-2,5.364852E-2,-4.330211E-1,6.7005867E-1,5.167265E-1,-3.313531E-2,5.8389742E-2,-2.9649047E-2,5.999547E-2,1.2120355E-2,-2.4414338E-2,5.541555E-2],"categories":[],"categories_nodes":[],"categories_segments":[],"categories_sizes":[],"default_left":[0,0,0,0,0,0,0,0,0,0,0,0,0,0,0,0,0,0,0,0,0,0,0,0,0,0,0],"id":20,"left_children":[1,3,5,-1,7,-1,9,11,13,-1,-1,15,-1,17,19,-1,-1,21,23,25,-1,-1,-1,-1,-1,-1,-1],"loss_changes":[5.768417E4,5.8299414E2,1.3242188E0,0E0,7.2924946E3,0E0,2.7019043E0,8.596775E2,4.9148535E2,0E0,0E0,5.3559273E1,0E0,1.0342503E2,2.000586E2,0E0,0E0,2.9790363E1,7.6594894E1,8.6651825E1,0E0,0E0,0E0,0E0,0E0,0E0,0E0],"parents":[2147483647,0,0,1,1,2,2,4,4,6,6,7,7,8,8,11,11,13,13,14,14,17,17,18,18,19,19],"right_children":[2,4,6,-1,8,-1,10,12,14,-1,-1,16,-1,18,20,-1,-1,22,24,26,-1,-1,-1,-1,-1,-1,-1],"split_conditions":[1E0,2.083846E-3,1.95E0,-3.3850864E-2,1.95E0,5.249911E-2,1E0,1E0,1E0,5.9465688E-2,5.3334642E-2,2.3219269E-2,5.2790493E-2,9.9997735E-1,1E0,-3.388872E-2,5.364852E-2,9.9996126E-1,1.36E4,3.98729E5,-3.313531E-2,5.8389742E-2,-2.9649047E-2,5.999547E-2,1.2120355E-2,-2.4414338E-2,5.541555E-2],"split_indices":[4,0,15,0,15,0,3,6,18,0,0,0,0,0,19,0,0,0,8,17,0,0,0,0,0,0,0],"split_type":[0,0,0,0,0,0,0,0,0,0,0,0,0,0,0,0,0,0,0,0,0,0,0,0,0,0,0],"sum_hessian":[9.6039E4,6.2415105E4,3.3623895E4,2.8797096E4,3.361801E4,3.1643453E4,1.9804419E3,3.475102E3,3.0142908E4,3.0405807E2,1.6763838E3,3.5357214E2,3.12153E3,4.509486E2,2.9691959E4,3.3601755E2,1.7554602E1,1.126342E2,3.3831442E2,1.4383328E2,2.9548125E4,9.660009E0,1.029742E2,1.5029567E2,1.8801875E2,5.3358982E1,9.04743E1],"tree_param":{"num_deleted":"0","num_feature":"21","num_nodes":"27","size_leaf_vector":"1"}},{"base_weights":[2.9324421E-3,1.0022231E0,-6.403342E-1,5.014328E-2,-3.1920698E-2,-4.7884646E-1,-6.654864E-1,5.0096687E-2,-3.3388354E-2,-6.507088E-1,-3.338517E-2,4.9674135E-2,-3.3386312E-2],"categories":[],"categories_nodes":[],"categories_segments":[],"categories_sizes":[],"default_left":[0,0,0,0,0,0,0,0,0,0,0,0,0],"id":21,"left_children":[1,3,5,-1,-1,7,9,-1,-1,11,-1,-1,-1],"loss_changes":[6.0365082E4,3.9398438E1,2.3173633E2,0E0,0E0,2.1555176E3,1.1875E0,0E0,0E0,1.821814E2,0E0,0E0,0E0],"parents":[2147483647,0,0,1,1,2,2,5,5,6,6,9,9],"right_children":[2,4,6,-1,-1,8,10,-1,-1,12,-1,-1,-1],"split_conditions":[0E0,1E0,5.5E-1,5.014328E-2,-3.1920698E-2,1E0,0E0,5.0096687E-2,-3.3388354E-2,1E0,-3.338517E-2,4.9674135E-2,-3.3386312E-2],"split_indices":[9,3,10,0,0,4,12,0,0,4,0,0,0],"split_type":[0,0,0,0,0,0,0,0,0,0,0,0,0],"sum_hessian":[9.390607E4,3.677575E4,5.7130316E4,3.6761746E4,1.4004108E1,7.7017705E3,4.9428547E4,8.709404E2,6.83083E3,6.4864233E3,4.294212E4,6.5859184E1,6.420564E3],"tree_param":{"num_deleted":"0","num_feature":"21","num_nodes":"13","size_leaf_vector":"1"}},{"base_weights":[-8.9014275E-3,-3.338672E-2,9.7721595E-1,-1.099527E-1,9.962366E-1,7.0269173E-1,-3.2648462E-1,-1.7050534E-1,5.0356474E-2,-3.4091055E-2,9.6325564E-1,-3.482125E-2,-4.389581E-2,4.439608E-1,-3.5773765E-2,-3.0965103E-2,1.1192076E0,2.9713082E-1,-3.469641E-2,-3.6122184E-2,7.078991E-1,4.674202E-2,6.553589E-2,-3.3345353E-2,3.1123439E-2,-3.357897E-2,4.1934505E-2],"categories":[],"categories_nodes":[],"categories_segments":[],"categories_sizes":[],"default_left":[0,0,0,0,0,0,0,0,0,0,0,0,0,0,0,0,0,0,0,0,0,0,0,0,0,0,0],"id":22,"left_children":[1,-1,3,5,7,9,11,13,-1,-1,15,-1,17,19,-1,-1,21,23,-1,-1,25,-1,-1,-1,-1,-1,-1],"loss_changes":[6.0699168E4,0E0,7.7389844E2,1.1360711E2,4.675664E2,4.9675682E1,5.322744E1,1.145158E2,0E0,0E0,2.9019096E1,0E0,6.446834E1,5.0048973E1,0E0,0E0,2.47612E0,6.026906E1,0E0,0E0,2.432911E1,0E0,0E0,0E0,0E0,0E0,0E0],"parents":[2147483647,0,0,2,2,3,3,4,4,5,5,6,6,7,7,10,10,12,12,13,13,16,16,17,17,20,20],"right_children":[2,-1,4,6,8,10,12,14,-1,-1,16,-1,18,20,-1,-1,22,24,-1,-1,26,-1,-1,-1,-1,-1,-1],"split_conditions":[9.9993896E-1,-3.338672E-2,1E0,9.9997735E-1,2E0,9.9996126E-1,5E0,8.0823E4,5.0356474E-2,-3.4091055E-2,1.75E0,-3.482125E-2,7E0,1E0,-3.5773765E-2,-3.0965103E-2,3E0,1.85E0,-3.469641E-2,-3.6122184E-2,2.3E0,4.674202E-2,6.553589E-2,-3.3345353E-2,3.1123439E-2,-3.357897E-2,4.1934505E-2],"split_indices":[0,0,18,0,20,0,20,16,0,0,15,0,20,2,0,0,20,15,0,0,15,0,0,0,0,0,0],"split_type":[0,0,0,0,0,0,0,0,0,0,0,0,0,0,0,0,0,0,0,0,0,0,0,0,0,0,0],"sum_hessian":[9.3426375E4,5.6007582E4,3.7418793E4,6.433252E2,3.677547E4,1.3487901E2,5.084462E2,3.4002682E2,3.643544E4,2.1107433E1,1.13771576E2,2.1955705E2,2.8888913E2,1.5991E2,1.8011684E2,9.939287E0,1.0383229E2,1.8983754E2,9.90516E1,2.9187317E1,1.3072269E2,5.589931E1,4.793298E1,4.763529E1,1.4220226E2,1.0962657E1,1.19760025E2],"tree_param":{"num_deleted":"0","num_feature":"21","num_nodes":"27","size_leaf_vector":"1"}},{"base_weights":[4.3648086E-3,-3.0810022E-1,5.020527E-2,-3.990791E-1,6.697312E-1,-5.4626757E-1,2.995478E-1,5.028067E-2,1.6296555E-1,-3.336514E-2,-4.5268357E-1,-3.335824E-2,5.019629E-2,-8.37821E-2,5.0347146E-2,9.676439E-1,-6.210875E-1,4.8485836E-1,-4.6039024E-1,-3.286008E-2,4.9653903E-2,4.7826514E-2,-3.2648675E-2,-3.14025E-2,5.1566035E-2,5.3629387E-2,-2.7991716E-2],"categories":[],"categories_nodes":[],"categories_segments":[],"categories_sizes":[],"default_left":[0,0,0,0,0,0,0,0,0,0,0,0,0,0,0,0,0,0,0,0,0,0,0,0,0,0,0],"id":23,"left_children":[1,3,-1,5,7,9,11,-1,13,-1,15,-1,-1,17,-1,19,21,23,25,-1,-1,-1,-1,-1,-1,-1,-1],"loss_changes":[2.9237912E4,6.3440396E3,0E0,6.7087295E3,1.0330828E3,6.100713E2,7.731688E3,0E0,5.0422144E2,0E0,7.2702188E3,0E0,0E0,4.0157187E2,0E0,1.3380664E2,1.3674707E3,4.5505035E2,1.725489E2,0E0,0E0,0E0,0E0,0E0,0E0,0E0,0E0],"parents":[2147483647,0,0,1,1,3,3,4,4,5,5,6,6,8,8,10,10,13,13,15,15,16,16,17,17,18,18],"right_children":[2,4,-1,6,8,10,12,-1,14,-1,16,-1,-1,18,-1,20,22,24,26,-1,-1,-1,-1,-1,-1,-1,-1],"split_conditions":[1.4E1,1E0,5.020527E-2,1E0,2E0,5.5E-1,5.5E-1,5.028067E-2,1.71E4,-3.336514E-2,2E0,-3.335824E-2,5.019629E-2,1.15E4,5.0347146E-2,0E0,1E0,7.2E3,1E0,-3.286008E-2,4.9653903E-2,4.7826514E-2,-3.2648675E-2,-3.14025E-2,5.1566035E-2,5.3629387E-2,-2.7991716E-2],"split_indices":[6,3,0,14,20,10,10,0,8,0,20,0,0,8,0,12,18,8,18,0,0,0,0,0,0,0,0],"split_type":[0,0,0,0,0,0,0,0,0,0,0,0,0,0,0,0,0,0,0,0,0,0,0,0,0,0,0],"sum_hessian":[9.359407E4,7.130779E4,2.2286281E4,6.5238496E4,6.069294E3,5.38859E4,1.1352599E4,3.649461E3,2.419833E3,2.3494098E4,3.03918E4,4.7852334E3,6.567365E3,1.8731067E3,5.4672614E2,3.2209978E3,2.7170803E4,7.4617303E2,1.1269337E3,4.925933E1,3.1717385E3,5.377073E2,2.6633096E4,2.4567982E2,5.0049323E2,6.805452E1,1.0588792E3],"tree_param":{"num_deleted":"0","num_feature":"21","num_nodes":"27","size_leaf_vector":"1"}},{"base_weights":[3.8163154E-3,4.8102494E-2,-6.3131315E-1,-4.706133E-1,-6.5648586E-1,4.8085008E-2,-3.292839E-2,-6.477801E-1,-3.2924514E-2,-3.2930333E-2,4.763896E-2],"categories":[],"categories_nodes":[],"categories_segments":[],"categories_sizes":[],"default_left":[0,0,0,0,0,0,0,0,0,0,0],"id":24,"left_children":[1,-1,3,5,7,-1,-1,9,-1,-1,-1],"loss_changes":[5.6089125E4,0E0,2.2389648E2,2.0223054E3,4.1210938E-1,0E0,0E0,1.5708618E2,0E0,0E0,0E0],"parents":[2147483647,0,0,2,2,3,3,4,4,7,7],"right_children":[2,-1,4,6,8,-1,-1,10,-1,-1,-1],"split_conditions":[1E0,4.8102494E-2,5.5E-1,1E0,1.35E0,4.8085008E-2,-3.292839E-2,9.5E-1,-3.2924514E-2,-3.2930333E-2,4.763896E-2],"split_indices":[6,0,10,4,15,0,0,5,0,0,0],"split_type":[0,0,0,0,0,0,0,0,0,0,0],"sum_hessian":[9.215855E4,3.6735055E4,5.542349E4,7.5086562E3,4.7914832E4,8.705421E2,6.6381143E3,9.027971E3,3.888686E4,8.967898E3,6.007231E1],"tree_param":{"num_deleted":"0","num_feature":"21","num_nodes":"11","size_leaf_vector":"1"}},{"base_weights":[7.438497E-3,-3.293178E-2,9.374004E-1,-1.1834415E-1,9.554607E-1,-3.3290982E-2,1.7828138E-1,-2.0382425E-1,4.833062E-2,4.1719988E-1,-3.4707744E-2,6.901065E-1,-3.535909E-2,5.611217E-1,-3.4623936E-2,-3.477743E-2,9.9975085E-1,4.5319125E-3,4.412898E-2,-3.275886E-2,5.5785447E-2],"categories":[],"categories_nodes":[],"categories_segments":[],"categories_sizes":[],"default_left":[0,0,0,0,0,0,0,0,0,0,0,0,0,0,0,0,0,0,0,0,0],"id":25,"left_children":[1,-1,3,5,7,-1,9,11,-1,13,-1,15,-1,17,-1,-1,19,-1,-1,-1,-1],"loss_changes":[5.7926336E4,0E0,7.442578E2,1.0685953E2,4.962539E2,0E0,8.931498E1,1.653629E2,0E0,5.4035347E1,0E0,5.7547245E1,0E0,4.4973885E1,0E0,0E0,2.1593071E1,0E0,0E0,0E0,0E0],"parents":[2147483647,0,0,2,2,3,3,4,4,6,6,7,7,9,9,11,11,13,13,16,16],"right_children":[2,-1,4,6,8,-1,10,12,-1,14,-1,16,-1,18,-1,-1,20,-1,-1,-1,-1],"split_conditions":[9.9993896E-1,-3.293178E-2,1E0,9E-1,2E0,-3.3290982E-2,1E0,7.44295E5,4.833062E-2,1.71E4,-3.4707744E-2,9E-1,-3.535909E-2,1.36E4,-3.4623936E-2,-3.477743E-2,1E0,4.5319125E-3,4.412898E-2,-3.275886E-2,5.5785447E-2],"split_indices":[0,0,18,13,20,0,0,17,0,8,0,13,0,8,0,0,2,0,0,0,0],"split_type":[0,0,0,0,0,0,0,0,0,0,0,0,0,0,0,0,0,0,0,0,0],"sum_hessian":[9.351454E4,5.4488266E4,3.9026277E4,6.5629047E2,3.8369984E4,2.3018964E2,4.261008E2,3.6541565E2,3.800457E4,3.349075E2,9.119331E1,1.3150325E2,2.339124E2,2.9689542E2,3.8012074E1,2.3791275E1,1.0771198E2,1.2103353E2,1.758619E2,6.748516E0,1.0096346E2],"tree_param":{"num_deleted":"0","num_feature":"21","num_nodes":"21","size_leaf_vector":"1"}},{"base_weights":[4.8998105E-3,-5.537617E-1,9.6611613E-1,-6.11547E-1,-1.2554011E-1,4.819999E-2,1.0136995E0,-3.2906335E-2,-5.7504374E-1,-3.2899976E-2,4.815862E-2,5.6313153E-2,4.920956E-2,6.234907E-1,-6.307039E-1,-5.648659E-1,1.0203735E0,5.0296575E-1,-3.2972388E-2,-3.2921802E-2,4.879455E-2,4.879274E-2,5.521959E-2,5.089556E-2,1.1368195E-2],"categories":[],"categories_nodes":[],"categories_segments":[],"categories_sizes":[],"default_left":[0,0,0,0,0,0,0,0,0,0,0,0,0,0,0,0,0,0,0,0,0,0,0,0,0],"id":26,"left_children":[1,3,5,7,9,-1,11,-1,13,-1,-1,-1,-1,15,17,19,21,23,-1,-1,-1,-1,-1,-1,-1],"loss_changes":[4.954206E4,1.4437051E3,2.4375E0,8.703516E1,4.0228892E3,0E0,3.6235352E0,0E0,1.9236641E3,0E0,0E0,0E0,0E0,6.042533E2,8.9811035E2,4.693457E1,2.5125122E0,9.653552E1,0E0,0E0,0E0,0E0,0E0,0E0,0E0],"parents":[2147483647,0,0,1,1,2,2,3,3,4,4,6,6,8,8,13,13,14,14,15,15,16,16,17,17],"right_children":[2,4,6,8,10,-1,12,-1,14,-1,-1,-1,-1,16,18,20,22,24,-1,-1,-1,-1,-1,-1,-1],"split_conditions":[1E0,1E0,2E0,2.083846E-3,5.5E-1,4.819999E-2,1E0,-3.2906335E-2,2E0,-3.2899976E-2,4.815862E-2,5.6313153E-2,4.920956E-2,1E0,6.328E3,2.3219269E-2,1E0,9E-1,-3.2972388E-2,-3.2921802E-2,4.879455E-2,4.879274E-2,5.521959E-2,5.089556E-2,1.1368195E-2],"split_indices":[4,14,20,0,10,0,3,0,20,0,0,0,0,6,17,0,19,13,0,0,0,0,0,0,0],"split_type":[0,0,0,0,0,0,0,0,0,0,0,0,0,0,0,0,0,0,0,0,0,0,0,0,0],"sum_hessian":[9.225602E4,5.8345746E4,3.391028E4,5.1408176E4,6.93757E3,3.2486625E4,1.4236555E3,2.2579139E4,2.8829035E4,4.659253E3,2.2783171E3,2.8797446E2,1.135681E3,1.2789575E3,2.7550078E4,3.2009567E2,9.588618E2,6.808419E2,2.6869236E4,3.0230908E2,1.7786583E1,6.350062E2,3.2385562E2,2.3641719E2,4.4442474E2],"tree_param":{"num_deleted":"0","num_feature":"21","num_nodes":"25","size_leaf_vector":"1"}},{"base_weights":[2.6048422E-3,9.2587495E-1,-6.228467E-1,4.6328567E-2,-3.1990565E-2,-4.627188E-1,-6.4768517E-1,-3.2494288E-2,-1.4082123E-1,-6.3453895E-1,-3.2513484E-2,4.6285745E-2,-3.2478284E-2,-3.2495126E-2,4.6893857E-2],"categories":[],"categories_nodes":[],"categories_segments":[],"categories_sizes":[],"default_left":[0,0,0,0,0,0,0,0,0,0,0,0,0,0,0],"id":27,"left_children":[1,3,5,-1,-1,7,9,-1,11,13,-1,-1,-1,-1,-1],"loss_changes":[5.228324E4,4.045703E1,2.143789E2,0E0,0E0,4.368108E2,1.1738281E0,0E0,1.4479633E3,1.8706226E2,0E0,0E0,0E0,0E0,0E0],"parents":[2147483647,0,0,1,1,2,2,5,5,6,6,8,8,9,9],"right_children":[2,4,6,-1,-1,8,10,-1,12,14,-1,-1,-1,-1,-1],"split_conditions":[1E0,2.3219269E-2,5.5E-1,4.6328567E-2,-3.1990565E-2,9.5E-1,1.2405492E-4,-3.2494288E-2,1.2405492E-4,1.3104291E-5,-3.2513484E-2,4.6285745E-2,-3.2478284E-2,-3.2495126E-2,4.6893857E-2],"split_indices":[6,0,10,0,0,5,0,0,0,0,0,0,0,0,0],"split_type":[0,0,0,0,0,0,0,0,0,0,0,0,0,0,0],"sum_hessian":[9.053791E4,3.656356E4,5.3974348E4,3.654771E4,1.5847648E1,7.250663E3,4.6723684E4,4.584179E3,2.6664844E3,7.7170693E3,3.9006617E4,8.608892E2,1.8055951E3,7.642979E3,7.4090416E1],"tree_param":{"num_deleted":"0","num_feature":"21","num_nodes":"15","size_leaf_vector":"1"}},{"base_weights":[9.87788E-3,-3.2498054E-2,9.0245837E-1,-4.5148662E-1,9.1566575E-1,-8.05506E-2,-3.449028E-2,2.4025155E-2,4.650704E-2,-3.4083825E-2,7.983281E-1,-3.4018364E-2,3.0900025E-1,5.1436186E-2,-3.098527E-2,-3.2763325E-2,5.398499E-1,3.0062824E-2,-3.3309262E-2],"categories":[],"categories_nodes":[],"categories_segments":[],"categories_sizes":[],"default_left":[0,0,0,0,0,0,0,0,0,0,0,0,0,0,0,0,0,0,0],"id":28,"left_children":[1,-1,3,5,7,9,-1,11,-1,-1,13,-1,15,-1,-1,-1,17,-1,-1],"loss_changes":[5.4226453E4,0E0,7.002129E2,3.3424065E1,5.0018555E2,7.940905E1,0E0,1.24695435E2,0E0,0E0,2.0596512E1,0E0,9.879007E1,0E0,0E0,0E0,2.6864716E1,0E0,0E0],"parents":[2147483647,0,0,2,2,3,3,4,4,5,5,7,7,10,10,12,12,16,16],"right_children":[2,-1,4,6,8,10,-1,12,-1,-1,14,-1,16,-1,-1,-1,18,-1,-1],"split_conditions":[9.9993896E-1,-3.2498054E-2,2E0,9.999932E-1,6.328E3,9.9999166E-1,-3.449028E-2,1.3E4,4.650704E-2,-3.4083825E-2,7.44295E5,-3.4018364E-2,1.85E0,5.1436186E-2,-3.098527E-2,-3.2763325E-2,2.99E5,3.0062824E-2,-3.3309262E-2],"split_indices":[0,0,20,0,17,0,0,8,0,0,17,0,15,0,0,0,8,0,0],"split_type":[0,0,0,0,0,0,0,0,0,0,0,0,0,0,0,0,0,0,0],"sum_hessian":[9.206964E4,5.2936598E4,3.913304E4,3.7772424E2,3.8755312E4,1.4827571E2,2.2944853E2,6.1914923E2,3.8136164E4,8.818457E1,6.0091137E1,1.7793866E2,4.4121057E2,5.1928562E1,8.162576E0,8.486946E1,3.5634113E2,3.395538E2,1.6787304E1],"tree_param":{"num_deleted":"0","num_feature":"21","num_nodes":"19","size_leaf_vector":"1"}},{"base_weights":[-3.9461334E-3,-3.3247888E-1,8.8493985E-1,-6.483788E-1,-1.3130829E-1,4.637695E-2,6.286095E-1,-3.2475498E-2,4.769585E-2,9.186649E-1,-5.4174936E-1,-3.2470237E-2,4.634967E-2,9.30184E-1,5.839517E-1,6.541204E-1,-5.805239E-1,4.6410095E-2,5.008748E-2,1.0225295E-1,4.958966E-2,4.86128E-2,4.7151935E-1,-6.35474E-1,5.0823603E-2,-8.605543E-3,4.7254648E-2,1.48166185E-2,4.7488887E-2,-3.0874813E-2,-3.252893E-2,-1.0315042E-2,4.651016E-2],"categories":[],"categories_nodes":[],"categories_segments":[],"categories_sizes":[],"default_left":[0,0,0,0,0,0,0,0,0,0,0,0,0,0,0,0,0,0,0,0,0,0,0,0,0,0,0,0,0,0,0,0,0],"id":29,"left_children":[1,3,5,7,9,-1,11,-1,-1,13,15,-1,-1,17,19,21,23,-1,-1,25,-1,-1,27,29,31,-1,-1,-1,-1,-1,-1,-1,-1],"loss_changes":[2.6809422E4,4.2596514E3,2.6993945E2,4.7885742E1,1.7649115E4,0E0,1.3480935E3,0E0,0E0,4.3833984E1,1.365667E3,0E0,0E0,6.484375E-1,7.565617E1,5.3286163E1,9.8945215E2,0E0,0E0,4.1304836E1,0E0,0E0,4.9129013E1,6.7226562E0,5.167212E2,0E0,0E0,0E0,0E0,0E0,0E0,0E0,0E0],"parents":[2147483647,0,0,1,1,2,2,3,3,4,4,6,6,9,9,10,10,13,13,14,14,15,15,16,16,19,19,22,22,23,23,24,24],"right_children":[2,4,6,8,10,-1,12,-1,-1,14,16,-1,-1,18,20,22,24,-1,-1,26,-1,-1,28,30,32,-1,-1,-1,-1,-1,-1,-1,-1],"split_conditions":[2E0,1E0,9.5E-1,1E0,2E0,4.637695E-2,1E0,-3.2475498E-2,4.769585E-2,2.65E0,1E0,-3.2470237E-2,4.634967E-2,1.95E0,8.0823E4,1.85E0,1E0,4.6410095E-2,5.008748E-2,1E0,4.958966E-2,4.86128E-2,1E0,1E4,1.71E4,-8.605543E-3,4.7254648E-2,1.48166185E-2,4.7488887E-2,-3.0874813E-2,-3.252893E-2,-1.0315042E-2,4.651016E-2],"split_indices":[9,6,5,3,20,0,2,0,0,15,18,0,0,15,16,15,3,0,0,3,0,0,3,8,8,0,0,0,0,0,0,0,0],"split_type":[0,0,0,0,0,0,0,0,0,0,0,0,0,0,0,0,0,0,0,0,0,0,0,0,0,0,0,0,0,0,0,0,0],"sum_hessian":[9.180222E4,6.702892E4,2.47733E4,2.6077299E4,4.095162E4,2.124072E4,3.5325808E3,2.6059496E4,1.7802914E1,1.1508871E4,2.9442752E4,6.6843146E2,2.8641494E3,1.1124252E4,3.8461978E2,9.2416516E2,2.8518586E4,1.0838038E4,2.86214E2,1.769161E2,2.0770367E2,3.3543356E2,5.887316E2,2.623517E4,2.283416E3,1.3406927E2,4.2846832E1,4.320796E2,1.56652E2,1.1997423E4,1.4237747E4,1.7674047E3,5.1601135E2],"tree_param":{"num_deleted":"0","num_feature":"21","num_nodes":"33","size_leaf_vector":"1"}},{"base_weights":[1.9213796E-3,8.937392E-1,-6.145629E-1,4.471199E-2,-3.0882422E-2,-4.552613E-1,-6.396397E-1,4.467132E-2,-3.208748E-2,-6.2563324E-1,-3.2087456E-2,4.4297386E-2,-3.2085296E-2],"categories":[],"categories_nodes":[],"categories_segments":[],"categories_sizes":[],"default_left":[0,0,0,0,0,0,0,0,0,0,0,0,0],"id":30,"left_children":[1,3,5,-1,-1,7,9,-1,-1,11,-1,-1,-1],"loss_changes":[4.875093E4,2.796289E1,2.0915234E2,0E0,0E0,1.794929E3,9.355469E-1,0E0,0E0,1.4558081E2,0E0,0E0,0E0],"parents":[2147483647,0,0,1,1,2,2,5,5,6,6,9,9],"right_children":[2,4,6,-1,-1,8,10,-1,-1,12,-1,-1,-1],"split_conditions":[1E0,1E0,5.5E-1,4.471199E-2,-3.0882422E-2,1E0,0E0,4.467132E-2,-3.208748E-2,1E0,-3.2087456E-2,4.4297386E-2,-3.2085296E-2],"split_indices":[6,3,10,0,0,4,12,0,0,4,0,0,0],"split_type":[0,0,0,0,0,0,0,0,0,0,0,0,0],"sum_hessian":[8.866964E4,3.624152E4,5.242812E4,3.6229934E4,1.1588401E1,7.133206E3,4.5294914E4,8.660586E2,6.2671475E3,5.9677827E3,3.9327133E4,6.221858E1,5.9055645E3],"tree_param":{"num_deleted":"0","num_feature":"21","num_nodes":"13","size_leaf_vector":"1"}},{"base_weights":[8.343231E-3,-6.4188945E-1,8.7108356E-1,-3.2070715E-2,-3.3205934E-2,-1.04573E-1,8.8758606E-1,-3.2393996E-2,1.8162616E-1,-1.9549155E-1,4.490524E-2,3.9854544E-1,-3.4384962E-2,6.681042E-1,-3.4261182E-2,5.0335145E-1,-3.581737E-2,-3.3833176E-2,9.2782456E-1,-3.2104976E-2,3.0648548E-2,5.309835E-2,4.0077306E-2],"categories":[],"categories_nodes":[],"categories_segments":[],"categories_sizes":[],"default_left":[0,0,0,0,0,0,0,0,0,0,0,0,0,0,0,0,0,0,0,0,0,0,0],"id":31,"left_children":[1,3,5,-1,-1,7,9,-1,11,13,-1,15,-1,17,-1,19,-1,-1,21,-1,-1,-1,-1],"loss_changes":[5.0340266E4,1.15234375E-1,6.210332E2,0E0,0E0,1.0000045E2,4.3223828E2,0E0,7.975972E1,1.550816E2,0E0,3.9851437E1,0E0,4.7012566E1,0E0,3.9257545E1,0E0,0E0,1.0414429E0,0E0,0E0,0E0,0E0],"parents":[2147483647,0,0,1,1,2,2,5,5,6,6,8,8,9,9,11,11,13,13,15,15,18,18],"right_children":[2,4,6,-1,-1,8,10,-1,12,14,-1,16,-1,18,-1,20,-1,-1,22,-1,-1,-1,-1],"split_conditions":[9.9993896E-1,2E0,1E0,-3.2070715E-2,-3.3205934E-2,1.85E0,2E0,-3.2393996E-2,1E0,7.44295E5,4.490524E-2,7E0,-3.4384962E-2,2.3E0,-3.4261182E-2,2E0,-3.581737E-2,-3.3833176E-2,9.999932E-1,-3.2104976E-2,3.0648548E-2,5.309835E-2,4.0077306E-2],"split_indices":[0,20,18,0,0,15,20,0,0,17,0,20,0,15,0,20,0,0,0,0,0,0,0],"split_type":[0,0,0,0,0,0,0,0,0,0,0,0,0,0,0,0,0,0,0,0,0,0,0],"sum_hessian":[8.9733984E4,5.1169023E4,3.856496E4,5.0127406E4,1.0416155E3,6.4135785E2,3.7923605E4,2.2084756E2,4.2051028E2,3.6460095E2,3.7559004E4,3.3696924E2,8.354104E1,1.3180725E2,2.327937E2,3.0851562E2,2.8453632E1,2.1075937E1,1.10731316E2,2.6521902E1,2.819937E2,5.010077E1,6.0630547E1],"tree_param":{"num_deleted":"0","num_feature":"21","num_nodes":"23","size_leaf_vector":"1"}},{"base_weights":[1.0150246E-3,-5.3827125E-1,8.980066E-1,-5.9550005E-1,-1.1448589E-1,4.4769477E-2,9.544867E-1,-4.339589E-1,-6.143778E-1,-3.2062247E-2,8.7878287E-1,1.0695325E0,4.619501E-2,-6.3934845E-1,6.1229974E-1,-5.7254875E-1,-3.2147285E-2,4.4732865E-2,-3.0782983E-2,4.651489E-2,5.5210393E-2,-3.206338E-2,4.1306492E-2,6.769723E-1,-3.1476256E-2,-6.4017E-1,5.7728934E-1,4.6091374E-2,2.1755693E-2,-3.206875E-2,4.47742E-2,4.230545E-2,-3.198785E-2],"categories":[],"categories_nodes":[],"categories_segments":[],"categories_sizes":[],"default_left":[0,0,0,0,0,0,0,0,0,0,0,0,0,0,0,0,0,0,0,0,0,0,0,0,0,0,0,0,0,0,0,0,0],"id":32,"left_children":[1,3,5,7,9,-1,11,13,15,-1,17,19,-1,21,23,25,-1,-1,-1,-1,-1,-1,-1,27,-1,29,31,-1,-1,-1,-1,-1,-1],"loss_changes":[4.3384E4,1.3583457E3,4.125E0,1.5021875E2,3.4878545E3,0E0,4.206299E0,1.1106646E3,5.242578E1,0E0,5.5356567E1,4.3893433E-1,0E0,1.2677734E1,6.8558044E1,1.3951328E3,0E0,0E0,0E0,0E0,0E0,0E0,0E0,4.7379517E1,0E0,3.192627E1,3.2668335E2,0E0,0E0,0E0,0E0,0E0,0E0],"parents":[2147483647,0,0,1,1,2,2,3,3,4,4,6,6,7,7,8,8,10,10,11,11,13,13,14,14,15,15,23,23,25,25,26,26],"right_children":[2,4,6,8,10,-1,12,14,16,-1,18,20,-1,22,24,26,-1,-1,-1,-1,-1,-1,-1,28,-1,30,32,-1,-1,-1,-1,-1,-1],"split_conditions":[1E0,1E0,2E0,1E0,1E0,4.4769477E-2,1E0,5.5E-1,2E0,-3.2062247E-2,9.5E-1,1E0,4.619501E-2,1E0,2E0,1E0,-3.2147285E-2,4.4732865E-2,-3.0782983E-2,4.651489E-2,5.5210393E-2,-3.206338E-2,4.1306492E-2,1.85E0,-3.1476256E-2,1E0,2E0,4.6091374E-2,2.1755693E-2,-3.206875E-2,4.47742E-2,4.230545E-2,-3.198785E-2],"split_indices":[4,14,20,18,15,0,3,15,20,0,5,18,0,3,9,15,0,0,0,0,0,0,0,15,0,3,9,0,0,0,0,0,0],"split_type":[0,0,0,0,0,0,0,0,0,0,0,0,0,0,0,0,0,0,0,0,0,0,0,0,0,0,0,0,0,0,0,0,0],"sum_hessian":[8.968343E4,5.6009805E4,3.3673625E4,4.9345664E4,6.664141E3,3.219847E4,1.4751545E3,5.1656895E3,4.4179973E4,4.3549434E3,2.3091978E3,3.0268613E2,1.1724684E3,4.318349E3,8.473402E2,1.7937277E4,2.6242695E4,2.2853237E3,2.3874018E1,6.590018E1,2.3678595E2,4.313263E3,5.086108E0,8.058286E2,4.1511623E1,1.6941406E4,9.9587024E2,3.9903656E2,4.0679205E2,1.6928705E4,1.270148E1,8.1594916E2,1.7992107E2],"tree_param":{"num_deleted":"0","num_feature":"21","num_nodes":"33","size_leaf_vector":"1"}},{"base_weights":[5.718052E-3,8.646208E-1,-6.0684323E-1,4.3255106E-2,-3.0455709E-2,-4.479252E-1,-6.3201654E-1,-3.1702116E-2,-1.3176021E-1,-6.19242E-1,-3.172733E-2,4.3216776E-2,-3.1686075E-2,-3.1702984E-2,4.3781802E-2],"categories":[],"categories_nodes":[],"categories_segments":[],"categories_sizes":[],"default_left":[0,0,0,0,0,0,0,0,0,0,0,0,0,0,0],"id":33,"left_children":[1,3,5,-1,-1,7,9,-1,11,13,-1,-1,-1,-1,-1],"loss_changes":[4.5401242E4,2.600586E1,2.012168E2,0E0,0E0,4.0541724E2,1.0136719E0,0E0,1.2779156E3,1.6068677E2,0E0,0E0,0E0,0E0,0E0],"parents":[2147483647,0,0,1,1,2,2,5,5,6,6,8,8,9,9],"right_children":[2,4,6,-1,-1,8,10,-1,12,14,-1,-1,-1,-1,-1],"split_conditions":[1E0,2.3219269E-2,5.5E-1,4.3255106E-2,-3.0455709E-2,9.5E-1,1.2405492E-4,-3.1702116E-2,1.2405492E-4,1.3104291E-5,-3.172733E-2,4.3216776E-2,-3.1686075E-2,-3.1702984E-2,4.3781802E-2],"split_indices":[6,0,10,0,0,5,0,0,0,0,0,0,0,0,0],"split_type":[0,0,0,0,0,0,0,0,0,0,0,0,0,0,0],"sum_hessian":[8.629073E4,3.5922117E4,5.0368605E4,3.5910805E4,1.1314841E1,6.890147E3,4.347846E4,4.3364185E3,2.5537283E3,7.228213E3,3.6250246E4,8.554483E2,1.69828E3,7.1578384E3,7.0374695E1],"tree_param":{"num_deleted":"0","num_feature":"21","num_nodes":"15","size_leaf_vector":"1"}},{"base_weights":[3.8682476E-3,-6.304804E-1,8.1320363E-1,-3.1694263E-2,-1.4004183E-1,8.545859E-1,-3.27828E-2,3.5835215E-1,-3.269144E-2,-1.482005E-1,4.3428987E-2,5.904309E-1,-3.0931925E-2,-3.2027446E-2,7.3721334E-2,-3.333623E-2,8.1249076E-1,2.6880103E-1,-3.5544883E-2,4.485815E-2,-3.0622318E-2,1.8766558E-2,-3.4661878E-2],"categories":[],"categories_nodes":[],"categories_segments":[],"categories_sizes":[],"default_left":[0,0,0,0,0,0,0,0,0,0,0,0,0,0,0,0,0,0,0,0,0,0,0],"id":34,"left_children":[1,3,5,-1,7,9,-1,11,-1,13,-1,15,-1,-1,17,-1,19,21,-1,-1,-1,-1,-1],"loss_changes":[4.492706E4,8.1828125E1,2.337789E3,0E0,8.717348E1,5.2492773E2,0E0,3.9587746E1,0E0,5.6378487E1,0E0,3.9706375E1,0E0,0E0,5.472321E1,0E0,1.4989502E1,2.9576935E1,0E0,0E0,0E0,0E0,0E0],"parents":[2147483647,0,0,1,1,2,2,4,4,5,5,7,7,9,9,11,11,14,14,16,16,17,17],"right_children":[2,4,6,-1,8,10,-1,12,-1,14,-1,16,-1,-1,18,-1,20,22,-1,-1,-1,-1,-1],"split_conditions":[2E0,2.65E0,1E0,-3.1694263E-2,8.0823E4,1E0,-3.27828E-2,1E0,-3.269144E-2,9E-1,4.3428987E-2,1E4,-3.0931925E-2,-3.2027446E-2,6E0,-3.333623E-2,1.42E4,1.71E4,-3.5544883E-2,4.485815E-2,-3.0622318E-2,1.8766558E-2,-3.4661878E-2],"split_indices":[20,15,4,0,16,18,0,4,0,13,0,8,0,0,20,0,8,8,0,0,0,0,0],"split_type":[0,0,0,0,0,0,0,0,0,0,0,0,0,0,0,0,0,0,0,0,0,0,0],"sum_hessian":[8.7506734E4,4.905677E4,3.8449965E4,4.8718254E4,3.3851556E2,3.73968E4,1.0531627E3,1.7198537E2,1.6653018E2,5.145573E2,3.6882242E4,1.392928E2,3.2692574E1,1.5928548E2,3.5527185E2,2.0610031E1,1.1868276E2,2.8505585E2,7.021599E1,1.12375595E2,6.307165E0,2.571865E2,2.7869356E1],"tree_param":{"num_deleted":"0","num_feature":"21","num_nodes":"23","size_leaf_vector":"1"}},{"base_weights":[4.6279877E-3,-5.3022605E-1,8.6841756E-1,-5.8867043E-1,-1.080381E-1,4.330715E-2,9.196319E-1,-3.1686313E-2,-5.536326E-1,-3.1679478E-2,4.327305E-2,1.0224322E0,4.4606484E-2,4.6221983E-1,-6.0653955E-1,4.4767912E-2,5.2618213E-2,-5.6526816E-1,7.565722E-1,3.795307E-1,-3.1751916E-2,-3.1678554E-2,4.3674175E-2,4.4560194E-2,1.5440458E-2,2.5305197E-2,-3.3058174E-2],"categories":[],"categories_nodes":[],"categories_segments":[],"categories_sizes":[],"default_left":[0,0,0,0,0,0,0,0,0,0,0,0,0,0,0,0,0,0,0,0,0,0,0,0,0,0,0],"id":35,"left_children":[1,3,5,7,9,-1,11,-1,13,-1,-1,15,-1,17,19,-1,-1,21,23,25,-1,-1,-1,-1,-1,-1,-1],"loss_changes":[4.0035477E4,1.3204756E3,3.0644531E0,7.386328E1,3.3307097E3,0E0,3.026245E0,0E0,1.4220176E3,0E0,0E0,1.499939E-1,0E0,3.9665213E2,7.0683203E2,0E0,0E0,2.9278534E1,6.1139465E1,9.345145E1,0E0,0E0,0E0,0E0,0E0,0E0,0E0],"parents":[2147483647,0,0,1,1,2,2,3,3,4,4,6,6,8,8,11,11,13,13,14,14,17,17,18,18,19,19],"right_children":[2,4,6,8,10,-1,12,-1,14,-1,-1,16,-1,18,20,-1,-1,22,24,26,-1,-1,-1,-1,-1,-1,-1],"split_conditions":[1E0,1E0,2E0,2.083846E-3,5.5E-1,4.330715E-2,1E0,-3.1686313E-2,2E0,-3.1679478E-2,4.327305E-2,6.328E3,4.4606484E-2,1E0,6.328E3,4.4767912E-2,5.2618213E-2,2.3219269E-2,2.65E0,2.85E0,-3.1751916E-2,-3.1678554E-2,4.3674175E-2,4.4560194E-2,1.5440458E-2,2.5305197E-2,-3.3058174E-2],"split_indices":[4,14,20,0,10,0,3,0,20,0,0,17,0,6,17,0,0,0,15,15,0,0,0,0,0,0,0],"split_type":[0,0,0,0,0,0,0,0,0,0,0,0,0,0,0,0,0,0,0,0,0,0,0,0,0,0,0],"sum_hessian":[8.6654625E4,5.3517348E4,3.3137277E4,4.7009348E4,6.508003E3,3.1745314E4,1.3919646E3,2.0557277E4,2.6452068E4,4.226592E3,2.2814111E3,2.8615918E2,1.1058054E3,1.3090774E3,2.5142992E4,6.0447536E1,2.2571164E2,2.913053E2,1.0177721E3,7.059084E2,2.4437082E4,2.78637E2,1.2668303E1,7.817332E2,2.3603885E2,6.298208E2,7.6087555E1],"tree_param":{"num_deleted":"0","num_feature":"21","num_nodes":"27","size_leaf_vector":"1"}},{"base_weights":[1.840659E-3,8.381216E-1,-5.9993625E-1,4.1936923E-2,-3.0598715E-2,-4.4699287E-1,-6.2476677E-1,4.1898962E-2,-3.1340715E-2,-6.1179346E-1,-3.136542E-2,-3.1340916E-2,4.2559274E-2],"categories":[],"categories_nodes":[],"categories_segments":[],"categories_sizes":[],"default_left":[0,0,0,0,0,0,0,0,0,0,0,0,0],"id":36,"left_children":[1,3,5,-1,-1,7,9,-1,-1,11,-1,-1,-1],"loss_changes":[4.2596465E4,3.2197266E1,1.8665234E2,0E0,0E0,1.5899373E3,1.0117188E0,0E0,0E0,1.5389941E2,0E0,0E0,0E0],"parents":[2147483647,0,0,1,1,2,2,5,5,6,6,9,9],"right_children":[2,4,6,-1,-1,8,10,-1,-1,12,-1,-1,-1],"split_conditions":[1E0,2.3219269E-2,5.5E-1,4.1936923E-2,-3.0598715E-2,1E0,1.2405492E-4,4.1898962E-2,-3.1340715E-2,1.3104291E-5,-3.136542E-2,-3.1340916E-2,4.2559274E-2],"split_indices":[6,0,10,0,0,4,0,0,0,0,0,0,0],"split_type":[0,0,0,0,0,0,0,0,0,0,0,0,0],"sum_hessian":[8.4639984E4,3.541871E4,4.9221273E4,3.540407E4,1.4639044E1,6.8776206E3,4.2343652E4,8.438631E2,6.0337573E3,6.976217E3,3.5367438E4,6.905865E3,7.03517E1],"tree_param":{"num_deleted":"0","num_feature":"21","num_nodes":"13","size_leaf_vector":"1"}},{"base_weights":[1.9359792E-3,-3.13496E-2,8.1644017E-1,-4.4024527E-1,8.2933825E-1,-3.3351053E-2,-5.516758E-2,-7.01593E-3,4.209472E-2,5.91899E-1,-3.2766756E-2,-3.1727176E-2,2.4886443E-1,-3.1186266E-2,4.7299374E-2,4.6898186E-1,-3.4254517E-2,2.9634839E-2,-3.4876704E-2],"categories":[],"categories_nodes":[],"categories_segments":[],"categories_sizes":[],"default_left":[0,0,0,0,0,0,0,0,0,0,0,0,0,0,0,0,0,0,0],"id":37,"left_children":[1,-1,3,5,7,-1,9,11,-1,13,-1,-1,15,-1,-1,17,-1,-1,-1],"loss_changes":[4.37261E4,0E0,6.032051E2,3.3016113E1,3.8661133E2,0E0,5.529102E1,8.775213E1,0E0,3.009892E1,0E0,0E0,8.013212E1,0E0,0E0,4.583969E1,0E0,0E0,0E0],"parents":[2147483647,0,0,2,2,3,3,4,4,6,6,7,7,9,9,12,12,15,15],"right_children":[2,-1,4,6,8,-1,10,12,-1,14,-1,-1,16,-1,-1,18,-1,-1,-1],"split_conditions":[9.9993896E-1,-3.13496E-2,2E0,1.36E4,1E0,-3.3351053E-2,1.42E4,9E-1,4.209472E-2,2.65E0,-3.2766756E-2,-3.1727176E-2,1E0,-3.1186266E-2,4.7299374E-2,7E0,-3.4254517E-2,2.9634839E-2,-3.4876704E-2],"split_indices":[0,0,20,8,18,0,8,13,0,15,0,0,0,0,0,20,0,0,0],"split_type":[0,0,0,0,0,0,0,0,0,0,0,0,0,0,0,0,0,0,0],"sum_hessian":[8.535645E4,4.8165324E4,3.719113E4,3.774989E2,3.681363E4,2.371229E2,1.40376E2,5.4451373E2,3.6269117E4,6.755539E1,7.282062E1,1.5729054E2,3.872232E2,1.5067055E1,5.2488335E1,3.137706E2,7.345261E1,2.8412915E2,2.964143E1],"tree_param":{"num_deleted":"0","num_feature":"21","num_nodes":"19","size_leaf_vector":"1"}},{"base_weights":[-2.481713E-3,-5.2782625E-1,8.4166574E-1,-5.8009934E-1,-1.333336E-1,4.198388E-2,8.730878E-1,-4.21438E-1,-5.98656E-1,-3.1318445E-2,8.301992E-1,4.858723E-2,4.2796303E-2,-6.254394E-1,5.7395446E-1,-3.1324994E-2,-5.815199E-1,4.1950416E-2,-2.9105863E-2,-3.131994E-2,-4.6314737E-1,2.4091187E-1,9.42811E-1,4.1981675E-2,-6.059494E-1,-8.658042E-3,-2.9713932E-2,4.2692773E-2,-9.679832E-3,4.368154E-2,5.0911546E-2,-3.0319689E-2,1.8193498E-2],"categories":[],"categories_nodes":[],"categories_segments":[],"categories_sizes":[],"default_left":[0,0,0,0,0,0,0,0,0,0,0,0,0,0,0,0,0,0,0,0,0,0,0,0,0,0,0,0,0,0,0,0,0],"id":38,"left_children":[1,3,5,7,9,-1,11,13,15,-1,17,-1,-1,19,21,-1,23,-1,-1,-1,25,27,29,-1,31,-1,-1,-1,-1,-1,-1,-1,-1],"loss_changes":[3.8024047E4,1.0897852E3,1.3203125E0,1.3714648E2,2.9387666E3,0E0,2.4396973E0,9.9331757E2,1.9569336E1,0E0,2.654065E1,0E0,0E0,3.4191895E-1,1.02009E2,0E0,8.988672E2,0E0,0E0,0E0,9.499526E-1,1.1700236E2,1.1690063E0,0E0,1.1181641E1,0E0,0E0,0E0,0E0,0E0,0E0,0E0,0E0],"parents":[2147483647,0,0,1,1,2,2,3,3,4,4,6,6,7,7,8,8,10,10,13,13,14,14,16,16,20,20,21,21,22,22,24,24],"right_children":[2,4,6,8,10,-1,12,14,16,-1,18,-1,-1,20,22,-1,24,-1,-1,-1,26,28,30,-1,32,-1,-1,-1,-1,-1,-1,-1,-1],"split_conditions":[1E0,1E0,1.95E0,1E0,2.083846E-3,4.198388E-2,1E0,0E0,2.083846E-3,-3.1318445E-2,2.5376624E-3,4.858723E-2,4.2796303E-2,5.348899E-3,9.9999166E-1,-3.1324994E-2,2.5376624E-3,4.1950416E-2,-2.9105863E-2,-3.131994E-2,9E-1,1.85E0,9E-1,4.1981675E-2,1E0,-8.658042E-3,-2.9713932E-2,4.2692773E-2,-9.679832E-3,4.368154E-2,5.0911546E-2,-3.0319689E-2,1.8193498E-2],"split_indices":[4,14,15,18,0,0,3,12,0,0,0,0,0,0,0,0,0,0,0,0,13,15,13,0,11,0,0,0,0,0,0,0,0],"split_type":[0,0,0,0,0,0,0,0,0,0,0,0,0,0,0,0,0,0,0,0,0,0,0,0,0,0,0,0,0,0,0,0,0],"sum_hessian":[8.574042E4,5.2850164E4,3.2890258E4,4.6666105E4,6.1840576E3,3.0959088E4,1.9311704E3,4.888942E3,4.1777164E4,4.0910405E3,2.0930168E3,2.7791495E2,1.6532555E3,4.0577048E3,8.312374E2,1.5902366E4,2.5874797E4,2.0804463E3,1.2570585E1,4.031017E3,2.6687637E1,4.3769415E2,3.9354327E2,4.3670483E2,2.5438092E4,9.032807E0,1.765483E1,1.8116579E2,2.5652835E2,2.1182596E2,1.8171732E2,2.5426818E4,1.12747755E1],"tree_param":{"num_deleted":"0","num_feature":"21","num_nodes":"33","size_leaf_vector":"1"}},{"base_weights":[-2.2848963E-3,8.143521E-1,-5.93098E-1,4.0740393E-2,-2.973946E-2,-4.3665373E-1,-6.1789733E-1,4.0713962E-2,-3.099888E-2,-6.042967E-1,-3.1024763E-2,-3.099959E-2,4.1349646E-2],"categories":[],"categories_nodes":[],"categories_segments":[],"categories_sizes":[],"default_left":[0,0,0,0,0,0,0,0,0,0,0,0,0],"id":39,"left_children":[1,3,5,-1,-1,7,9,-1,-1,11,-1,-1,-1],"loss_changes":[3.996769E4,2.281836E1,1.8620898E2,0E0,0E0,1.5094774E3,1.0888672E0,0E0,0E0,1.5083838E2,0E0,0E0,0E0],"parents":[2147483647,0,0,1,1,2,2,5,5,6,6,9,9],"right_children":[2,4,6,-1,-1,8,10,-1,-1,12,-1,-1,-1],"split_conditions":[0E0,2.3219269E-2,5.5E-1,4.0740393E-2,-2.973946E-2,1E0,1.2405492E-4,4.0713962E-2,-3.099888E-2,1.3104291E-5,-3.1024763E-2,-3.099959E-2,4.1349646E-2],"split_indices":[9,0,10,0,0,4,0,0,0,0,0,0,0],"split_type":[0,0,0,0,0,0,0,0,0,0,0,0,0],"sum_hessian":[8.283606E4,3.4772395E4,4.8063668E4,3.476157E4,1.0821388E1,6.579036E3,4.1484633E4,8.404795E2,5.7385566E3,6.690798E3,3.4793836E4,6.6187856E3,7.201259E1],"tree_param":{"num_deleted":"0","num_feature":"21","num_nodes":"13","size_leaf_vector":"1"}},{"base_weights":[3.2828732E-3,-3.1008843E-2,7.931038E-1,-1.8703358E-1,8.081533E-1,-3.3094954E-2,2.0089868E-1,-3.866498E-1,4.089507E-2,4.5671338E-1,-3.3126317E-2,1.978878E-2,-3.369411E-2,-3.0881966E-2,7.019516E-1,-3.2961108E-2,7.075347E-1,4.157479E-2,-3.299578E-2,-2.9243166E-2,4.279139E-2],"categories":[],"categories_nodes":[],"categories_segments":[],"categories_sizes":[],"default_left":[0,0,0,0,0,0,0,0,0,0,0,0,0,0,0,0,0,0,0,0,0],"id":40,"left_children":[1,-1,3,5,7,-1,9,11,-1,13,-1,15,-1,-1,17,-1,19,-1,-1,-1,-1],"loss_changes":[4.0992203E4,0E0,5.4183984E2,1.0258489E2,4.2157617E2,0E0,6.808116E1,3.4263493E1,0E0,6.295997E1,0E0,5.765089E1,0E0,0E0,3.47183E1,0E0,1.2252377E1,0E0,0E0,0E0,0E0],"parents":[2147483647,0,0,2,2,3,3,4,4,6,6,7,7,9,9,11,11,14,14,16,16],"right_children":[2,-1,4,6,8,-1,10,12,-1,14,-1,16,-1,-1,18,-1,20,-1,-1,-1,-1],"split_conditions":[9.9993896E-1,-3.1008843E-2,1E0,1.36E4,2E0,-3.3094954E-2,1.71E4,9.999932E-1,4.089507E-2,9E-1,-3.3126317E-2,9.999908E-1,-3.369411E-2,-3.0881966E-2,1E0,-3.2961108E-2,1E4,4.157479E-2,-3.299578E-2,-2.9243166E-2,4.279139E-2],"split_indices":[0,0,18,8,20,0,8,0,0,13,0,0,0,0,0,0,8,0,0,0,0],"split_type":[0,0,0,0,0,0,0,0,0,0,0,0,0,0,0,0,0,0,0,0,0],"sum_hessian":[8.3244164E4,4.6521652E4,3.6722508E4,5.5515216E2,3.6167355E4,2.492907E2,3.0586145E2,2.9238254E2,3.5874973E4,2.3631679E2,6.954466E1,1.214541E2,1.7092845E2,4.363588E1,1.9268091E2,6.113603E1,6.031807E1,1.7630023E2,1.6380678E1,5.9056253E0,5.4412445E1],"tree_param":{"num_deleted":"0","num_feature":"21","num_nodes":"21","size_leaf_vector":"1"}},{"base_weights":[-4.1455347E-3,-5.1770896E-1,8.176399E-1,-5.735882E-1,-1.0768069E-1,4.0783014E-2,8.5974354E-1,-6.185652E-1,-5.3936505E-1,-3.0978773E-2,4.0752493E-2,9.14198E-1,4.1878436E-2,-3.098588E-2,-5.282336E-1,6.636297E-1,-5.911324E-1,4.1246105E-2,4.7055643E-2,-3.0844627E-2,-2.2326739E-1,7.200724E-1,-3.0795231E-2,4.620312E-1,-3.1049201E-2,9.264862E-3,-1.7650284E-2,2.2930447E-2,4.367628E-2,3.6262363E-2,1.3882141E-2],"categories":[],"categories_nodes":[],"categories_segments":[],"categories_sizes":[],"default_left":[0,0,0,0,0,0,0,0,0,0,0,0,0,0,0,0,0,0,0,0,0,0,0,0,0,0,0,0,0,0,0],"id":41,"left_children":[1,3,5,7,9,-1,11,13,15,-1,-1,17,-1,-1,19,21,23,-1,-1,-1,25,27,-1,29,-1,-1,-1,-1,-1,-1,-1],"loss_changes":[3.527077E4,1.178331E3,1.9765625E0,6.9336914E1,2.914702E3,0E0,9.547119E-1,1.7080078E0,1.6016235E3,0E0,0E0,1.882019E-1,0E0,0E0,6.7044525E0,7.708801E1,7.7530273E2,0E0,0E0,0E0,3.169749E0,4.039923E1,0E0,3.280458E1,0E0,0E0,0E0,0E0,0E0,0E0,0E0],"parents":[2147483647,0,0,1,1,2,2,3,3,4,4,6,6,7,7,8,8,11,11,14,14,15,15,16,16,20,20,21,21,23,23],"right_children":[2,4,6,8,10,-1,12,14,16,-1,-1,18,-1,-1,20,22,24,-1,-1,-1,26,28,-1,30,-1,-1,-1,-1,-1,-1,-1],"split_conditions":[1E0,1E0,2E0,5.5E-1,5.5E-1,4.0783014E-2,1E4,1E0,2E0,-3.0978773E-2,4.0752493E-2,8.6E3,4.1878436E-2,-3.098588E-2,1E0,2E0,6.328E3,4.1246105E-2,4.7055643E-2,-3.0844627E-2,4.3E3,7.44295E5,-3.0795231E-2,1.3E4,-3.1049201E-2,9.264862E-3,-1.7650284E-2,2.2930447E-2,4.367628E-2,3.6262363E-2,1.3882141E-2],"split_indices":[4,14,20,10,10,0,8,11,20,0,0,8,0,0,2,9,17,0,0,0,8,17,0,8,0,0,0,0,0,0,0],"split_type":[0,0,0,0,0,0,0,0,0,0,0,0,0,0,0,0,0,0,0,0,0,0,0,0,0,0,0,0,0,0,0],"sum_hessian":[8.3570305E4,5.143013E4,3.2140178E4,4.5261438E4,6.1686895E3,3.0716328E4,1.4238511E3,1.9550527E4,2.571091E4,3.9678245E3,2.200865E3,4.0039133E2,1.0234598E3,1.9298469E4,2.5205829E2,1.0602598E3,2.465065E4,1.00079544E2,3.0031177E2,1.9449303E2,5.7565258E1,1.0158844E3,4.4375336E1,6.790586E2,2.3971592E4,1.3770795E1,4.3794464E1,3.7719086E2,6.3869354E2,2.785264E2,4.005322E2],"tree_param":{"num_deleted":"0","num_feature":"21","num_nodes":"31","size_leaf_vector":"1"}},{"base_weights":[-1.9755466E-3,7.9257125E-1,-5.869673E-1,3.9650958E-2,-2.953577E-2,-6.085072E-1,-4.653665E-1,-6.1245227E-1,-5.6783044E-1,3.961847E-2,-3.0678008E-2,-5.971786E-1,-3.0691667E-2,3.951932E-2,-3.0672166E-2,3.8817406E-2,-3.0671779E-2],"categories":[],"categories_nodes":[],"categories_segments":[],"categories_sizes":[],"default_left":[0,0,0,0,0,0,0,0,0,0,0,0,0,0,0,0,0],"id":42,"left_children":[1,3,5,-1,-1,7,9,11,13,-1,-1,15,-1,-1,-1,-1,-1],"loss_changes":[3.7588562E4,2.171875E1,1.2171582E2,0E0,0E0,6E0,1.3076637E3,3.935547E-1,2.180437E2,0E0,0E0,6.805603E1,0E0,0E0,0E0,0E0,0E0],"parents":[2147483647,0,0,1,1,2,2,5,5,6,6,7,7,8,8,11,11],"right_children":[2,4,6,-1,-1,8,10,12,14,-1,-1,16,-1,-1,-1,-1,-1],"split_conditions":[1E0,1E0,1.251E3,3.9650958E-2,-2.953577E-2,3.1E2,1E0,0E0,1E0,3.961847E-2,-3.0678008E-2,1E0,-3.0691667E-2,3.951932E-2,-3.0672166E-2,3.8817406E-2,-3.0671779E-2],"split_indices":[6,3,9,0,0,9,4,12,4,0,0,4,0,0,0,0,0],"split_type":[0,0,0,0,0,0,0,0,0,0,0,0,0,0,0,0,0],"sum_hessian":[8.086783E4,3.429176E4,4.6576066E4,3.4281086E4,1.0674481E1,3.9563875E4,7.0121895E3,3.6053156E4,3.5107195E3,7.386698E2,6.27352E3,3.0255007E3,3.3027656E4,1.1353898E2,3.3971807E3,3.4843834E1,2.990657E3],"tree_param":{"num_deleted":"0","num_feature":"21","num_nodes":"17","size_leaf_vector":"1"}},{"base_weights":[6.741243E-3,-3.068698E-2,7.7170324E-1,-4.187384E-1,7.84096E-1,8.8394165E-2,-3.3185802E-2,-9.676609E-2,3.978753E-2,-3.139317E-2,6.376215E-1,4.1720846E-1,-3.298553E-2,5.7199962E-2,-3.0214697E-2,-3.05325E-2,6.2301105E-1,3.7061732E-2,-3.3483E-2],"categories":[],"categories_nodes":[],"categories_segments":[],"categories_sizes":[],"default_left":[0,0,0,0,0,0,0,0,0,0,0,0,0,0,0,0,0,0,0],"id":43,"left_children":[1,-1,3,5,7,9,-1,11,-1,-1,13,15,-1,-1,-1,-1,17,-1,-1],"loss_changes":[3.866547E4,0E0,5.385625E2,4.6838356E1,3.7076562E2,4.8995102E1,0E0,1.3695718E2,0E0,0E0,4.4972355E1,5.2746113E1,0E0,0E0,0E0,0E0,3.2092453E1,0E0,0E0],"parents":[2147483647,0,0,2,2,3,3,4,4,5,5,7,7,10,10,11,11,16,16],"right_children":[2,-1,4,6,8,10,-1,12,-1,-1,14,16,-1,-1,-1,-1,18,-1,-1],"split_conditions":[9.9993896E-1,-3.068698E-2,2E0,1E0,1E0,1E0,-3.3185802E-2,9.9999166E-1,3.978753E-2,-3.139317E-2,1.0000036E0,9E-1,-3.298553E-2,5.7199962E-2,-3.0214697E-2,-3.05325E-2,1.71E4,3.7061732E-2,-3.3483E-2],"split_indices":[0,0,20,20,18,0,0,0,0,0,0,13,0,0,0,0,8,0,0],"split_type":[0,0,0,0,0,0,0,0,0,0,0,0,0,0,0,0,0,0,0],"sum_hessian":[8.145999E4,4.497764E4,3.648235E4,3.755385E2,3.6106812E4,1.22528755E2,2.5300977E2,4.7139355E2,3.5635418E4,5.311601E1,6.941274E1,2.4654976E2,2.2484378E2,4.9363964E1,2.004878E1,4.0801918E1,2.0574785E2,1.8889839E2,1.6849459E1],"tree_param":{"num_deleted":"0","num_feature":"21","num_nodes":"19","size_leaf_vector":"1"}},{"base_weights":[1.5692406E-3,-5.1124793E-1,7.956065E-1,-5.661224E-1,-1.1454641E-1,3.968976E-2,8.237211E-1,-3.0665819E-2,-5.2979875E-1,-3.0658174E-2,3.9659936E-2,4.5224246E-2,4.0399246E-2,4.8075044E-1,-5.768338E-1,-5.288213E-1,4.044768E-2,7.199505E-2,-5.930624E-1,-3.0643735E-2,4.1142948E-2,-9.839858E-4,4.9263697E-2,1.5021334E-2,-2.993059E-2],"categories":[],"categories_nodes":[],"categories_segments":[],"categories_sizes":[],"default_left":[0,0,0,0,0,0,0,0,0,0,0,0,0,0,0,0,0,0,0,0,0,0,0,0,0],"id":44,"left_children":[1,3,5,7,9,-1,11,-1,13,-1,-1,-1,-1,15,17,19,-1,21,23,-1,-1,-1,-1,-1,-1],"loss_changes":[3.2722314E4,1.0628252E3,9.511719E-1,7.320508E1,2.6865527E3,0E0,1.661377E0,0E0,1.1526777E3,0E0,0E0,0E0,0E0,3.578903E2,2.4398486E2,3.064344E1,0E0,4.742555E1,1.1224805E2,0E0,0E0,0E0,0E0,0E0,0E0],"parents":[2147483647,0,0,1,1,2,2,3,3,4,4,6,6,8,8,13,13,14,14,15,15,17,17,18,18],"right_children":[2,4,6,8,10,-1,12,-1,14,-1,-1,-1,-1,16,18,20,-1,22,24,-1,-1,-1,-1,-1,-1],"split_conditions":[1E0,1E0,1.95E0,2.083846E-3,5.5E-1,3.968976E-2,1E0,-3.0665819E-2,1.95E0,-3.0658174E-2,3.9659936E-2,4.5224246E-2,4.0399246E-2,5.5E-1,6.328E3,2.3219269E-2,4.044768E-2,1.71E4,1E0,-3.0643735E-2,4.1142948E-2,-9.839858E-4,4.9263697E-2,1.5021334E-2,-2.993059E-2],"split_indices":[4,14,15,0,10,0,3,0,15,0,0,0,0,10,17,0,0,8,19,0,0,0,0,0,0],"split_type":[0,0,0,0,0,0,0,0,0,0,0,0,0,0,0,0,0,0,0,0,0,0,0,0,0],"sum_hessian":[8.035812E4,4.8825348E4,3.1532771E4,4.289183E4,5.9335205E3,2.9651717E4,1.8810542E3,1.864771E4,2.4244117E4,3.8300366E3,2.1034836E3,2.975333E2,1.5835209E3,1.077824E3,2.3166293E4,2.642781E2,8.135459E2,5.652152E2,2.2601076E4,2.4932083E2,1.4957285E1,5.145438E2,5.0671364E1,1.3917882E2,2.2461898E4],"tree_param":{"num_deleted":"0","num_feature":"21","num_nodes":"25","size_leaf_vector":"1"}},{"base_weights":[-1.2078481E-3,7.728285E-1,-5.812097E-1,3.8655933E-2,-2.7881628E-2,-4.267781E-1,-6.054868E-1,3.8627326E-2,-3.0373916E-2,-5.923631E-1,-3.0403374E-2,-3.0374799E-2,3.9230462E-2],"categories":[],"categories_nodes":[],"categories_segments":[],"categories_sizes":[],"default_left":[0,0,0,0,0,0,0,0,0,0,0,0,0],"id":45,"left_children":[1,3,5,-1,-1,7,9,-1,-1,11,-1,-1,-1],"loss_changes":[3.5211957E4,1.3402344E1,1.6783887E2,0E0,0E0,1.32121E3,9.5214844E-1,0E0,0E0,1.3394702E2,0E0,0E0,0E0],"parents":[2147483647,0,0,1,1,2,2,5,5,6,6,9,9],"right_children":[2,4,6,-1,-1,8,10,-1,-1,12,-1,-1,-1],"split_conditions":[1E0,2.3219269E-2,5.5E-1,3.8655933E-2,-2.7881628E-2,1E0,1.2405492E-4,3.8627326E-2,-3.0373916E-2,1.3104291E-5,-3.0403374E-2,-3.0374799E-2,3.9230462E-2],"split_indices":[6,0,10,0,0,4,0,0,0,0,0,0,0],"split_type":[0,0,0,0,0,0,0,0,0,0,0,0,0],"sum_hessian":[7.84311E4,3.3595797E4,4.4835305E4,3.358889E4,6.9063215E0,6.093276E3,3.874203E4,7.974237E2,5.295852E3,6.404266E3,3.2337764E4,6.335201E3,6.906483E1],"tree_param":{"num_deleted":"0","num_feature":"21","num_nodes":"13","size_leaf_vector":"1"}},{"base_weights":[1.0552995E-3,-3.0382443E-2,7.521786E-1,-2.1925278E-1,7.6308405E-1,2.6279885E-1,-3.292793E-2,-3.0759482E-2,7.6950735E-1,-3.1252675E-2,8.882079E-1,3.884847E-1,3.8775507E-2,5.18335E-2,7.392856E-1,4.3394876E-1,-3.3369925E-2,4.7968436E-2,-3.6183305E-2,4.2086985E-2,1.5688566E-2],"categories":[],"categories_nodes":[],"categories_segments":[],"categories_sizes":[],"default_left":[0,0,0,0,0,0,0,0,0,0,0,0,0,0,0,0,0,0,0,0,0],"id":46,"left_children":[1,-1,3,5,7,9,-1,-1,11,-1,13,15,-1,-1,17,19,-1,-1,-1,-1,-1],"loss_changes":[3.596815E4,0E0,3.732246E2,8.312562E1,3.0877148E2,1.0466022E2,0E0,0E0,7.898047E1,0E0,1.6747665E0,2.6194397E1,0E0,0E0,1.9564068E1,2.5119675E1,0E0,0E0,0E0,0E0,0E0],"parents":[2147483647,0,0,2,2,3,3,4,4,5,5,8,8,10,10,11,11,14,14,15,15],"right_children":[2,-1,4,6,8,10,-1,-1,12,-1,14,16,-1,-1,18,20,-1,-1,-1,-1,-1],"split_conditions":[9.9993896E-1,-3.0382443E-2,2E0,7.44295E5,1.85E0,2.65E0,-3.292793E-2,-3.0759482E-2,6.328E3,-3.1252675E-2,1E0,9E0,3.8775507E-2,5.18335E-2,9.999932E-1,9.9997735E-1,-3.3369925E-2,4.7968436E-2,-3.6183305E-2,4.2086985E-2,1.5688566E-2],"split_indices":[0,0,20,17,15,15,0,0,17,0,20,20,0,0,0,0,0,0,0,0,0],"split_type":[0,0,0,0,0,0,0,0,0,0,0,0,0,0,0,0,0,0,0,0,0],"sum_hessian":[7.866644E4,4.345282E4,3.5213617E4,3.907141E2,3.4822906E4,1.8648515E2,2.0422894E2,1.6109511E2,3.466181E4,7.707185E1,1.094133E2,5.386297E2,3.412318E4,5.180614E1,5.760716E1,5.169596E2,2.1670147E1,5.0373333E1,7.2338266E0,1.163049E2,4.0065466E2],"tree_param":{"num_deleted":"0","num_feature":"21","num_nodes":"21","size_leaf_vector":"1"}},{"base_weights":[3.2589217E-3,-5.0524414E-1,7.7541673E-1,-5.603186E-1,-1.0985142E-1,3.8690876E-2,8.104204E-1,-3.8806826E-1,-5.809539E-1,-3.0355839E-2,3.8663086E-2,4.3890417E-2,3.9616846E-2,-6.0514176E-1,6.576978E-1,-5.4156554E-1,-3.0437684E-2,-3.0357176E-2,-3.168632E-1,1.6031675E-1,8.8690335E-1,-6.065195E-1,5.961486E-1,3.7328526E-3,-2.8615577E-2,3.5615955E-2,-2.023703E-2,4.024964E-2,4.8276626E-2,-3.036289E-2,3.725913E-2,-3.9614434E-3,4.155753E-2],"categories":[],"categories_nodes":[],"categories_segments":[],"categories_sizes":[],"default_left":[0,0,0,0,0,0,0,0,0,0,0,0,0,0,0,0,0,0,0,0,0,0,0,0,0,0,0,0,0,0,0,0,0],"id":47,"left_children":[1,3,5,7,9,-1,11,13,15,-1,-1,-1,-1,17,19,21,-1,-1,23,25,27,29,31,-1,-1,-1,-1,-1,-1,-1,-1,-1,-1],"loss_changes":[3.081428E4,1.030334E3,1.1171875E0,1.4739844E2,2.5414985E3,0E0,9.378052E-1,1.00972925E3,4.0280273E1,0E0,0E0,0E0,0E0,1.9326172E0,8.704196E1,1.1350264E3,0E0,0E0,2.7916465E0,7.591694E1,2.593048E0,1.4947754E1,1.3176138E2,0E0,0E0,0E0,0E0,0E0,0E0,0E0,0E0,0E0,0E0],"parents":[2147483647,0,0,1,1,2,2,3,3,4,4,6,6,7,7,8,8,13,13,14,14,15,15,18,18,19,19,20,20,21,21,22,22],"right_children":[2,4,6,8,10,-1,12,14,16,-1,-1,-1,-1,18,20,22,-1,-1,24,26,28,30,32,-1,-1,-1,-1,-1,-1,-1,-1,-1,-1],"split_conditions":[1E0,1E0,2E0,1E0,5.5E-1,3.8690876E-2,1E0,5.5E-1,2E0,-3.0355839E-2,3.8663086E-2,4.3890417E-2,3.9616846E-2,5.348899E-3,9.9997735E-1,5.5E-1,-3.0437684E-2,-3.0357176E-2,9E-1,1.75E0,9E-1,2.3219269E-2,7.44295E5,3.7328526E-3,-2.8615577E-2,3.5615955E-2,-2.023703E-2,4.024964E-2,4.8276626E-2,-3.036289E-2,3.725913E-2,-3.9614434E-3,4.155753E-2],"split_indices":[4,14,20,18,10,0,3,10,20,0,0,0,0,0,0,10,0,0,13,15,13,0,17,0,0,0,0,0,0,0,0,0,0],"split_type":[0,0,0,0,0,0,0,0,0,0,0,0,0,0,0,0,0,0,0,0,0,0,0,0,0,0,0,0,0,0,0,0,0],"sum_hessian":[7.847681E4,4.731678E4,3.1160031E4,4.1531426E4,5.785356E3,2.9820684E4,1.3393469E3,4.445234E3,3.708619E4,3.7014485E3,2.0839075E3,2.7331165E2,1.0660353E3,3.6814775E3,7.6375653E2,1.5353258E4,2.1732936E4,3.654992E3,2.6485561E1,2.4146712E2,5.222894E2,1.4524497E4,8.287607E2,1.0736972E1,1.57485895E1,1.2201273E2,1.1945438E2,2.6131094E2,2.609785E2,1.4517119E4,7.3780327E0,2.1410431E2,6.146564E2],"tree_param":{"num_deleted":"0","num_feature":"21","num_nodes":"33","size_leaf_vector":"1"}},{"base_weights":[-4.5877486E-3,6.413596E-1,-5.756676E-1,7.544711E-1,-3.0085057E-2,-2.8831428E-1,-5.998806E-1,3.7745085E-2,-2.890024E-2,3.7713204E-2,-3.0079514E-2,-5.859361E-1,-3.0117149E-2,-3.0088112E-2,3.8504638E-2],"categories":[],"categories_nodes":[],"categories_segments":[],"categories_sizes":[],"default_left":[0,0,0,0,0,0,0,0,0,0,0,0,0,0,0],"id":48,"left_children":[1,3,5,7,-1,9,11,-1,-1,-1,-1,13,-1,-1,-1],"loss_changes":[2.8217809E4,5.0473584E3,2.8230957E2,1.93125E1,0E0,1.0316099E3,9.326172E-1,0E0,0E0,0E0,0E0,1.2185327E2,0E0,0E0,0E0],"parents":[2147483647,0,0,1,1,2,2,3,3,5,5,6,6,11,11],"right_children":[2,4,6,8,-1,10,12,-1,-1,-1,-1,14,-1,-1,-1],"split_conditions":[1E-1,1E0,5.5E-1,2.3219269E-2,-3.0085057E-2,1E0,1.2405492E-4,3.7745085E-2,-2.890024E-2,3.7713204E-2,-3.0079514E-2,1.3104291E-5,-3.0117149E-2,-3.0088112E-2,3.8504638E-2],"split_indices":[15,4,10,0,0,4,0,0,0,0,0,0,0,0,0],"split_type":[0,0,0,0,0,0,0,0,0,0,0,0,0,0,0],"sum_hessian":[7.6492336E4,3.5893332E4,4.0599004E4,3.290001E4,2.9933223E3,3.1561023E3,3.7442902E4,3.2889816E4,1.0192833E1,7.289058E2,2.4271965E3,5.6554014E3,3.17875E4,5.590709E3,6.469236E1],"tree_param":{"num_deleted":"0","num_feature":"21","num_nodes":"15","size_leaf_vector":"1"}},{"base_weights":[1.2425964E-3,-3.0097736E-2,7.1099997E-1,7.4566966E-1,-3.0881817E-2,-3.9650348E-4,7.5744206E-1,-3.0413399E-2,2.2143191E-1,4.0843878E-2,3.785389E-2,3.3217466E-1,-3.351325E-2,2.0886738E-2,-3.363214E-2],"categories":[],"categories_nodes":[],"categories_segments":[],"categories_sizes":[],"default_left":[0,0,0,0,0,0,0,0,0,0,0,0,0,0,0],"id":49,"left_children":[1,-1,3,5,-1,7,9,-1,11,-1,-1,13,-1,-1,-1],"loss_changes":[3.2768926E4,0E0,1.620248E3,3.0099805E2,0E0,7.2055305E1,1.11328125E-1,0E0,3.888264E1,0E0,0E0,3.0278107E1,0E0,0E0,0E0],"parents":[2147483647,0,0,2,2,3,3,5,5,6,6,8,8,11,11],"right_children":[2,-1,4,6,-1,8,10,-1,12,-1,-1,14,-1,-1,-1],"split_conditions":[2E0,-3.0097736E-2,1E0,1E0,-3.0881817E-2,9E-1,6.328E3,-3.0413399E-2,7E0,4.0843878E-2,3.785389E-2,1.71E4,-3.351325E-2,2.0886738E-2,-3.363214E-2],"split_indices":[20,0,4,18,0,13,17,0,20,0,0,8,0,0,0],"split_type":[0,0,0,0,0,0,0,0,0,0,0,0,0,0,0],"sum_hessian":[7.653878E4,4.1375434E4,3.5163344E4,3.4269547E4,8.9379694E2,5.3236487E2,3.3737184E4,1.4186722E2,3.9049768E2,1.918725E2,3.354531E4,3.479163E2,4.2581383E1,3.211543E2,2.6761982E1],"tree_param":{"num_deleted":"0","num_feature":"21","num_nodes":"15","size_leaf_vector":"1"}},{"base_weights":[4.033391E-3,-4.987821E-1,7.5704384E-1,-5.5347526E-1,-1.08570345E-1,3.7776854E-2,7.8883284E-1,-3.898984E-1,-5.7309556E-1,-3.0070636E-2,3.7750196E-2,4.2570867E-2,3.861443E-2,-6.004404E-1,6.3384897E-1,-5.309135E-1,-3.0147215E-2,-3.0071942E-2,-4.4107744E-1,1.7852814E-1,8.6368734E-1,-6.000732E-1,6.572317E-1,-8.230579E-3,-2.8413204E-2,3.541254E-2,-1.706702E-2,3.9203737E-2,4.6769124E-2,-3.0077694E-2,3.8493324E-2,-3.5274427E-3,4.0442098E-2],"categories":[],"categories_nodes":[],"categories_segments":[],"categories_sizes":[],"default_left":[0,0,0,0,0,0,0,0,0,0,0,0,0,0,0,0,0,0,0,0,0,0,0,0,0,0,0,0,0,0,0,0,0],"id":50,"left_children":[1,3,5,7,9,-1,11,13,15,-1,-1,-1,-1,17,19,21,-1,-1,23,25,27,29,31,-1,-1,-1,-1,-1,-1,-1,-1,-1,-1],"loss_changes":[2.880896E4,9.736338E2,8.6328125E-1,1.2820117E2,2.3880417E3,0E0,7.467041E-1,9.247728E2,4.4663086E1,0E0,0E0,0E0,0E0,3.0078125E-1,7.645398E1,1.2176245E3,0E0,0E0,8.172083E-1,6.8214066E1,2.04187E0,2.885791E1,9.001633E1,0E0,0E0,0E0,0E0,0E0,0E0,0E0,0E0,0E0,0E0],"parents":[2147483647,0,0,1,1,2,2,3,3,4,4,6,6,7,7,8,8,13,13,14,14,15,15,18,18,19,19,20,20,21,21,22,22],"right_children":[2,4,6,8,10,-1,12,14,16,-1,-1,-1,-1,18,20,22,-1,-1,24,26,28,30,32,-1,-1,-1,-1,-1,-1,-1,-1,-1,-1],"split_conditions":[1E0,1E0,2E0,1E0,5.5E-1,3.7776854E-2,1E0,5.5E-1,2E0,-3.0070636E-2,3.7750196E-2,4.2570867E-2,3.861443E-2,5.348899E-3,9.9997735E-1,5.5E-1,-3.0147215E-2,-3.0071942E-2,-9E-1,9.9996126E-1,1.85E0,2.3219269E-2,3.98729E5,-8.230579E-3,-2.8413204E-2,3.541254E-2,-1.706702E-2,3.9203737E-2,4.6769124E-2,-3.0077694E-2,3.8493324E-2,-3.5274427E-3,4.0442098E-2],"split_indices":[4,14,20,18,10,0,3,10,20,0,0,0,0,0,0,10,0,0,15,0,15,0,17,0,0,0,0,0,0,0,0,0,0],"split_type":[0,0,0,0,0,0,0,0,0,0,0,0,0,0,0,0,0,0,0,0,0,0,0,0,0,0,0,0,0,0,0,0,0],"sum_hessian":[7.608631E4,4.5622598E4,3.0463713E4,4.0013746E4,5.608855E3,2.9108676E4,1.3550381E3,4.287692E3,3.5726055E4,3.5711187E3,2.0377361E3,2.7276178E2,1.0822762E3,3.556651E3,7.310407E2,1.4812235E4,2.0913816E4,3.53175E3,2.4901007E1,2.4582549E2,4.8521524E2,1.3997937E4,8.142988E2,8.568938E0,1.633207E1,1.215793E2,1.24246185E2,2.3556854E2,2.496467E2,1.3983385E4,1.4552623E1,1.4048033E2,6.738185E2],"tree_param":{"num_deleted":"0","num_feature":"21","num_nodes":"33","size_leaf_vector":"1"}},{"base_weights":[-4.1069183E-3,7.3769826E-1,-5.7060474E-1,3.6909185E-2,-2.8776875E-2,-4.1840348E-1,-5.944246E-1,3.687892E-2,-2.9818034E-2,-5.813137E-1,-2.9847175E-2,-2.9818604E-2,3.77918E-2],"categories":[],"categories_nodes":[],"categories_segments":[],"categories_sizes":[],"default_left":[0,0,0,0,0,0,0,0,0,0,0,0,0],"id":51,"left_children":[1,3,5,-1,-1,7,9,-1,-1,11,-1,-1,-1],"loss_changes":[3.1169682E4,2.090039E1,1.5221973E2,0E0,0E0,1.1718895E3,8.535156E-1,0E0,0E0,1.192157E2,0E0,0E0,0E0],"parents":[2147483647,0,0,1,1,2,2,5,5,6,6,9,9],"right_children":[2,4,6,-1,-1,8,10,-1,-1,12,-1,-1,-1],"split_conditions":[0E0,2.3219269E-2,5.5E-1,3.6909185E-2,-2.8776875E-2,1E0,1.2405492E-4,3.687892E-2,-2.9818034E-2,1.3104291E-5,-2.9847175E-2,-2.9818604E-2,3.77918E-2],"split_indices":[9,0,10,0,0,4,0,0,0,0,0,0,0],"split_type":[0,0,0,0,0,0,0,0,0,0,0,0,0],"sum_hessian":[7.417073E4,3.2115943E4,4.205478E4,3.2104514E4,1.1429579E1,5.6935186E3,3.6361266E4,7.5913745E2,4.934381E3,5.8973613E3,3.0463902E4,5.8322354E3,6.512572E1],"tree_param":{"num_deleted":"0","num_feature":"21","num_nodes":"13","size_leaf_vector":"1"}},{"base_weights":[-5.829335E-3,-2.9827086E-2,7.168991E-1,-1.6150562E-1,7.3117524E-1,6.205064E-1,-4.2686677E-1,-3.0349856E-2,7.335031E-1,-2.8746447E-2,7.9234034E-1,-5.558587E-2,-3.189616E-2,3.9747026E-2,3.6655985E-2,-3.403289E-2,8.883268E-1,-3.3081006E-2,3.9610412E-2,3.8882725E-2,4.9163252E-2],"categories":[],"categories_nodes":[],"categories_segments":[],"categories_sizes":[],"default_left":[0,0,0,0,0,0,0,0,0,0,0,0,0,0,0,0,0,0,0,0,0],"id":52,"left_children":[1,-1,3,5,7,9,11,-1,13,-1,15,17,-1,-1,-1,-1,19,-1,-1,-1,-1],"loss_changes":[3.1399035E4,0E0,4.1491992E2,1.1020836E2,1.01833984E2,2.8112617E1,3.1008842E1,0E0,1.8554688E-1,0E0,1.7308014E1,7.485906E1,0E0,0E0,0E0,0E0,4.052658E-1,0E0,0E0,0E0,0E0],"parents":[2147483647,0,0,2,2,3,3,4,4,5,5,6,6,8,8,10,10,11,11,16,16],"right_children":[2,-1,4,6,8,10,12,-1,14,-1,16,18,-1,-1,-1,-1,20,-1,-1,-1,-1],"split_conditions":[9.9993896E-1,-2.9827086E-2,1E0,9.9997735E-1,1E0,9E-1,9.9999166E-1,-3.0349856E-2,6.328E3,-2.8746447E-2,9.9996126E-1,9.999908E-1,-3.189616E-2,3.9747026E-2,3.6655985E-2,-3.403289E-2,9.9997675E-1,-3.3081006E-2,3.9610412E-2,3.8882725E-2,4.9163252E-2],"split_indices":[0,0,18,0,19,13,0,0,17,0,0,0,0,0,0,0,0,0,0,0,0],"split_type":[0,0,0,0,0,0,0,0,0,0,0,0,0,0,0,0,0,0,0,0,0],"sum_hessian":[7.354503E4,4.0468676E4,3.3076355E4,5.288083E2,3.2547545E4,1.3363911E2,3.9516916E2,5.606961E1,3.2491477E4,1.6500507E1,1.171386E2,1.4367897E2,2.5149017E2,1.8869844E2,3.2302777E4,6.793599E0,1.10345E2,8.3913864E1,5.9765106E1,5.519439E1,5.515061E1],"tree_param":{"num_deleted":"0","num_feature":"21","num_nodes":"21","size_leaf_vector":"1"}},{"base_weights":[-6.423999E-3,-2.9797137E-1,7.069254E-1,-4.2554545E-1,2.7337343E-1,3.69302E-2,5.177514E-1,-4.6058688E-1,2.4816276E-1,-2.980113E-2,3.692446E-2,-2.9836694E-2,3.690923E-2,-4.8100215E-1,3.6878336E-2,3.7650354E-2,-5.19918E-1,-2.980918E-2,-4.0087968E-1,4.4528168E-2,-5.844229E-1,3.648485E-2,-2.7553707E-2,4.309505E-2,-3.0159747E-2],"categories":[],"categories_nodes":[],"categories_segments":[],"categories_sizes":[],"default_left":[0,0,0,0,0,0,0,0,0,0,0,0,0,0,0,0,0,0,0,0,0,0,0,0,0],"id":53,"left_children":[1,3,5,7,9,-1,11,13,15,-1,-1,-1,-1,17,-1,-1,19,-1,21,-1,23,-1,-1,-1,-1],"loss_changes":[1.548664E4,3.8530122E3,1.2908691E2,1.0202451E3,3.9022698E3,0E0,7.625498E2,1.0050908E3,8.2907275E2,0E0,0E0,0E0,0E0,3.7248828E2,0E0,0E0,7.768904E1,0E0,4.0455522E3,0E0,2.2557373E1,0E0,0E0,0E0,0E0],"parents":[2147483647,0,0,1,1,2,2,3,3,4,4,6,6,7,7,8,8,13,13,16,16,18,18,20,20],"right_children":[2,4,6,8,10,-1,12,14,16,-1,-1,-1,-1,18,-1,-1,20,-1,22,-1,24,-1,-1,-1,-1],"split_conditions":[2E0,1E0,9.5E-1,1E0,1E0,3.69302E-2,1.2405492E-4,1.4E1,9.302476E-1,-2.980113E-2,3.692446E-2,-2.9836694E-2,3.690923E-2,1E0,3.6878336E-2,3.7650354E-2,1E0,-2.980918E-2,2E0,4.4528168E-2,2E0,3.648485E-2,-2.7553707E-2,4.309505E-2,-3.0159747E-2],"split_indices":[9,14,5,3,6,0,0,6,0,0,0,0,0,6,0,0,18,0,20,0,20,0,0,0,0],"split_type":[0,0,0,0,0,0,0,0,0,0,0,0,0,0,0,0,0,0,0,0,0,0,0,0,0],"sum_hessian":[7.44619E4,5.2858926E4,2.160297E4,4.321076E4,9.648163E3,1.8501797E4,3.1011726E3,4.107467E4,2.1360918E3,3.362564E3,6.2855986E3,5.1181033E2,2.589362E3,4.0387117E4,6.8755554E2,1.2889259E3,8.471659E2,1.6565977E4,2.3821139E4,3.6488647E1,8.1067725E2,2.793023E3,2.1028115E4,9.811638E0,8.008656E2],"tree_param":{"num_deleted":"0","num_feature":"21","num_nodes":"25","size_leaf_vector":"1"}},{"base_weights":[-3.6382372E-3,7.2239906E-1,-5.6554234E-1,3.6140393E-2,-2.8087243E-2,-4.1497767E-1,-5.8935827E-1,-2.9561767E-2,-1.2490336E-1,-5.761053E-1,-2.9595364E-2,3.610923E-2,-2.9545102E-2,-2.9563844E-2,3.6942538E-2],"categories":[],"categories_nodes":[],"categories_segments":[],"categories_sizes":[],"default_left":[0,0,0,0,0,0,0,0,0,0,0,0,0,0,0],"id":54,"left_children":[1,3,5,-1,-1,7,9,-1,11,13,-1,-1,-1,-1,-1],"loss_changes":[2.9313521E4,1.6863281E1,1.45E2,0E0,0E0,2.8293634E2,8.408203E-1,0E0,8.2679565E2,1.13723145E2,0E0,0E0,0E0,0E0,0E0],"parents":[2147483647,0,0,1,1,2,2,5,5,6,6,8,8,9,9],"right_children":[2,4,6,-1,-1,8,10,-1,12,14,-1,-1,-1,-1,-1],"split_conditions":[1E0,2.3219269E-2,5.5E-1,3.6140393E-2,-2.8087243E-2,9.5E-1,1.2405492E-4,-2.9561767E-2,1.2405492E-4,1.3104291E-5,-2.9595364E-2,3.610923E-2,-2.9545102E-2,-2.9563844E-2,3.6942538E-2],"split_indices":[6,0,10,0,0,5,0,0,0,0,0,0,0,0,0],"split_type":[0,0,0,0,0,0,0,0,0,0,0,0,0,0,0],"sum_hessian":[7.185132E4,3.1347229E4,4.0504098E4,3.1337688E4,9.539118E0,5.534347E3,3.496975E4,3.4419058E3,2.0924412E3,5.677512E3,2.9292236E4,7.4238715E2,1.3500541E3,5.613298E3,6.4214355E1],"tree_param":{"num_deleted":"0","num_feature":"21","num_nodes":"15","size_leaf_vector":"1"}},{"base_weights":[4.722387E-3,-2.9574638E-2,7.031844E-1,-1.6620761E-1,3.5866663E-2,5.141426E-1,-4.1608256E-1,-2.8952375E-2,7.024225E-1,-3.199643E-2,-1.5960829E-1,-3.341161E-2,8.12736E-1,3.6546308E-1,-3.2319687E-2,3.0960087E-2,5.067992E-2,-3.4665816E-2,3.485909E-2],"categories":[],"categories_nodes":[],"categories_segments":[],"categories_sizes":[],"default_left":[0,0,0,0,0,0,0,0,0,0,0,0,0,0,0,0,0,0,0],"id":55,"left_children":[1,-1,3,5,-1,7,9,-1,11,-1,13,-1,15,17,-1,-1,-1,-1,-1],"loss_changes":[3.0035973E4,0E0,4.0869922E2,9.077658E1,0E0,2.9951725E1,2.2297829E1,0E0,1.9126595E1,0E0,4.7052727E1,0E0,3.811821E0,3.1656038E1,0E0,0E0,0E0,0E0,0E0],"parents":[2147483647,0,0,2,2,3,3,5,5,6,6,8,8,10,10,12,12,13,13],"right_children":[2,-1,4,6,-1,8,10,-1,12,-1,14,-1,16,18,-1,-1,-1,-1,-1],"split_conditions":[9.9993896E-1,-2.9574638E-2,1E0,9.9997735E-1,3.5866663E-2,1.75E0,1.36E4,-2.8952375E-2,9.9996126E-1,-3.199643E-2,1.42E4,-3.341161E-2,9.9997675E-1,9.999932E-1,-3.2319687E-2,3.0960087E-2,5.067992E-2,-3.4665816E-2,3.485909E-2],"split_indices":[0,0,18,0,0,15,8,0,0,0,8,0,0,0,0,0,0,0,0],"split_type":[0,0,0,0,0,0,0,0,0,0,0,0,0,0,0,0,0,0,0],"sum_hessian":[7.212467E4,3.8910434E4,3.321424E4,5.317138E2,3.2682523E4,1.4254366E2,3.8917017E2,2.0638287E1,1.21905365E2,2.0700493E2,1.8216522E2,8.703686E0,1.1320168E2,8.775619E1,9.4409035E1,5.97318E1,5.3469883E1,2.0675161E1,6.7081024E1],"tree_param":{"num_deleted":"0","num_feature":"21","num_nodes":"19","size_leaf_vector":"1"}},{"base_weights":[-2.5581091E-3,-4.8942444E-1,7.2492206E-1,-5.4387313E-1,-1.012076E-1,3.616905E-2,7.4819654E-1,-3.8550046E-1,-5.632498E-1,-2.9547418E-2,3.6142226E-2,7.916552E-1,3.668762E-2,-5.888875E-1,4.4092697E-1,-2.9555336E-2,-5.4607713E-1,3.6311347E-2,4.1096937E-2,-2.9548451E-2,-3.09942E-1,7.3456377E-1,2.0450221E-1,3.6174383E-2,-5.7025814E-1,-2.8339777E-2,3.0719219E-2,-2.6196871E-2,3.7780043E-2,-1.9394189E-4,4.311342E-2,-1.0377611E-2,-2.879925E-2],"categories":[],"categories_nodes":[],"categories_segments":[],"categories_sizes":[],"default_left":[0,0,0,0,0,0,0,0,0,0,0,0,0,0,0,0,0,0,0,0,0,0,0,0,0,0,0,0,0,0,0,0,0],"id":56,"left_children":[1,3,5,7,9,-1,11,13,15,-1,-1,17,-1,19,21,-1,23,-1,-1,-1,25,27,29,-1,31,-1,-1,-1,-1,-1,-1,-1,-1],"loss_changes":[2.5531295E4,9.1275977E2,4.951172E-1,1.1600195E2,2.14457E3,0E0,5.2752686E-1,6.947227E2,1.5818359E1,0E0,0E0,2.506714E-1,0E0,1.7421875E0,5.6538055E1,0E0,6.416177E2,0E0,0E0,0E0,6.67871E0,1.002829E1,6.2195E1,0E0,4.2456543E1,0E0,0E0,0E0,0E0,0E0,0E0,0E0,0E0],"parents":[2147483647,0,0,1,1,2,2,3,3,4,4,6,6,7,7,8,8,11,11,13,13,14,14,16,16,20,20,21,21,22,22,24,24],"right_children":[2,4,6,8,10,-1,12,14,16,-1,-1,18,-1,20,22,-1,24,-1,-1,-1,26,28,30,-1,32,-1,-1,-1,-1,-1,-1,-1,-1],"split_conditions":[1E0,1E0,1.95E0,1E0,5.5E-1,3.616905E-2,1E4,5.5E-1,2.083846E-3,-2.9547418E-2,3.6142226E-2,8.6E3,3.668762E-2,5.348899E-3,1.85E0,-2.9555336E-2,2.5376624E-3,3.6311347E-2,4.1096937E-2,-2.9548451E-2,1E0,1.2405492E-4,1E0,3.6174383E-2,1E0,-2.8339777E-2,3.0719219E-2,-2.6196871E-2,3.7780043E-2,-1.9394189E-4,4.311342E-2,-1.0377611E-2,-2.879925E-2],"split_indices":[4,14,15,18,10,0,8,10,0,0,0,8,0,0,15,0,0,0,0,0,11,0,0,0,19,0,0,0,0,0,0,0,0],"split_type":[0,0,0,0,0,0,0,0,0,0,0,0,0,0,0,0,0,0,0,0,0,0,0,0,0,0,0,0,0,0,0,0,0],"sum_hessian":[7.2082516E4,4.3182766E4,2.8899752E4,3.787085E4,5.3119146E3,2.7135062E4,1.7646896E3,4.1306274E3,3.3740223E4,3.3319768E3,1.9799374E3,4.267887E2,1.3379009E3,3.3150647E3,8.1556305E2,1.2854592E4,2.088563E4,1.4294157E2,2.8384714E2,3.2894006E3,2.566403E1,3.6282794E2,4.527351E2,3.8982608E2,2.0495805E4,2.0385946E1,5.2780833E0,5.572276E0,3.5725568E2,3.4456927E2,1.08165825E2,3.1916605E2,2.0176639E4],"tree_param":{"num_deleted":"0","num_feature":"21","num_nodes":"33","size_leaf_vector":"1"}},{"base_weights":[1.226048E-3,7.081763E-1,-5.6048256E-1,3.5432864E-2,-2.8408948E-2,-4.5957473E-1,-2.9354874E-2,-2.9324537E-2,3.5504505E-2],"categories":[],"categories_nodes":[],"categories_segments":[],"categories_sizes":[],"default_left":[0,0,0,0,0,0,0,0,0],"id":57,"left_children":[1,3,5,-1,-1,7,-1,-1,-1],"loss_changes":[2.7421174E4,1.9168945E1,1.0307422E2,0E0,0E0,1.1932906E3,0E0,0E0,0E0],"parents":[2147483647,0,0,1,1,2,2,5,5],"right_children":[2,4,6,-1,-1,8,-1,-1,-1],"split_conditions":[1E0,2.3219269E-2,1.2405492E-4,3.5432864E-2,-2.8408948E-2,1.3104291E-5,-2.9354874E-2,-2.9324537E-2,3.5504505E-2],"split_indices":[6,0,0,0,0,0,0,0,0],"split_type":[0,0,0,0,0,0,0,0,0],"sum_hessian":[6.905156E4,3.0573002E4,3.8478562E4,3.0561932E4,1.1071024E1,8.034571E3,3.044399E4,7.248555E3,7.860155E2],"tree_param":{"num_deleted":"0","num_feature":"21","num_nodes":"9","size_leaf_vector":"1"}},{"base_weights":[-7.797817E-3,-2.9334802E-2,6.8851E-1,1.1258686E-1,7.0169175E-1,4.854654E-1,-3.531469E-2,1.7440335E-1,3.5177708E-2,-3.3378076E-2,5.955133E-1,8.450897E-2,-3.1431362E-2,4.8450977E-2,-3.039421E-2,7.180421E-1,3.5146156E-1,-3.2533816E-1,5.053032E-1,3.0149577E-2,4.111793E-2,-3.1483855E-2,3.114681E-2,-3.157681E-2,3.805206E-2,-3.350512E-2,2.8759925E-2],"categories":[],"categories_nodes":[],"categories_segments":[],"categories_sizes":[],"default_left":[0,0,0,0,0,0,0,0,0,0,0,0,0,0,0,0,0,0,0,0,0,0,0,0,0,0,0],"id":58,"left_children":[1,-1,3,5,7,9,11,13,-1,-1,15,17,-1,-1,-1,19,21,23,25,-1,-1,-1,-1,-1,-1,-1,-1],"loss_changes":[2.7760959E4,0E0,2.3727246E2,3.866386E1,2.9891602E1,2.5659084E1,3.579009E1,6.828655E1,0E0,0E0,5.198059E0,7.2442825E1,0E0,0E0,0E0,9.4895935E-1,1.7140993E1,7.130776E1,1.740635E1,0E0,0E0,0E0,0E0,0E0,0E0,0E0,0E0],"parents":[2147483647,0,0,2,2,3,3,4,4,5,5,6,6,7,7,10,10,11,11,15,15,16,16,17,17,18,18],"right_children":[2,-1,4,6,8,10,12,14,-1,-1,16,18,-1,-1,-1,20,22,24,26,-1,-1,-1,-1,-1,-1,-1,-1],"split_conditions":[9.9993896E-1,-2.9334802E-2,6.328E3,9.999851E-1,1E0,9.9996126E-1,1.42E4,3.98729E5,3.5177708E-2,-3.3378076E-2,9.9997735E-1,1.3E4,-3.1431362E-2,4.8450977E-2,-3.039421E-2,9.9997675E-1,3.65E4,1E0,9.9998677E-1,3.0149577E-2,4.111793E-2,-3.1483855E-2,3.114681E-2,-3.157681E-2,3.805206E-2,-3.350512E-2,2.8759925E-2],"split_indices":[0,0,17,0,19,0,8,17,0,0,0,8,0,0,0,0,8,3,0,0,0,0,0,0,0,0,0],"split_type":[0,0,0,0,0,0,0,0,0,0,0,0,0,0,0,0,0,0,0,0,0,0,0,0,0,0,0],"sum_hessian":[6.886815E4,3.7604543E4,3.1263604E4,6.997651E2,3.0563838E4,1.980851E2,5.0167996E2,1.0790525E2,3.0455934E4,1.6817156E1,1.8126794E2,4.180994E2,8.358057E1,5.3412395E1,5.449286E1,1.1938648E2,6.188146E1,2.1191971E2,2.0617969E2,5.9996647E1,5.9389835E1,1.3125393E1,4.8756065E1,1.6564972E2,4.6269993E1,1.1090312E1,1.9508937E2],"tree_param":{"num_deleted":"0","num_feature":"21","num_nodes":"27","size_leaf_vector":"1"}},{"base_weights":[4.855851E-3,-4.8280892E-1,7.1057606E-1,-2.9316721E-2,-3.9616504E-1,3.545635E-2,7.4086905E-1,5.886664E-1,-5.546409E-1,4.0278178E-2,3.6124777E-2,-4.9295828E-1,6.799138E-1,3.237232E-1,-2.9378368E-2,-2.9335454E-2,3.717871E-2,7.1920645E-1,2.5885928E-1,3.759858E-2,1.2695688E-1,3.5471622E-2,4.1333567E-2,-2.9358475E-2,4.30264E-2,2.9415444E-2,-4.4571175E-3],"categories":[],"categories_nodes":[],"categories_segments":[],"categories_sizes":[],"default_left":[0,0,0,0,0,0,0,0,0,0,0,0,0,0,0,0,0,0,0,0,0,0,0,0,0,0,0],"id":59,"left_children":[1,3,5,-1,7,-1,9,11,13,-1,-1,15,17,19,-1,-1,-1,21,23,-1,25,-1,-1,-1,-1,-1,-1],"loss_changes":[2.3932773E4,3.6863965E2,7.216797E-1,0E0,3.494808E3,0E0,9.334717E-1,3.0668872E2,5.5800195E2,0E0,0E0,2.8498192E1,4.7179688E1,5.8681152E1,0E0,0E0,0E0,2.16333E0,1.2569008E2,0E0,4.782089E1,0E0,0E0,0E0,0E0,0E0,0E0],"parents":[2147483647,0,0,1,1,2,2,4,4,6,6,7,7,8,8,11,11,12,12,13,13,17,17,18,18,20,20],"right_children":[2,4,6,-1,8,-1,10,12,14,-1,-1,16,18,20,-1,-1,-1,22,24,-1,26,-1,-1,-1,-1,-1,-1],"split_conditions":[1E0,2.083846E-3,2E0,-2.9316721E-2,2E0,3.545635E-2,1E0,1E0,6.328E3,4.0278178E-2,3.6124777E-2,2.3219269E-2,2.65E0,1.85E0,-2.9378368E-2,-2.9335454E-2,3.717871E-2,1.95E0,7.44295E5,3.759858E-2,1.3E4,3.5471622E-2,4.1333567E-2,-2.9358475E-2,4.30264E-2,2.9415444E-2,-4.4571175E-3],"split_indices":[4,0,20,0,20,0,3,6,17,0,0,0,15,15,0,0,0,15,17,0,8,0,0,0,0,0,0],"split_type":[0,0,0,0,0,0,0,0,0,0,0,0,0,0,0,0,0,0,0,0,0,0,0,0,0,0,0],"sum_hessian":[6.953871E4,4.11226E4,2.8416107E4,1.8733414E4,2.2389188E4,2.7142145E4,1.273964E3,3.1030288E3,1.9286158E4,2.7230783E2,1.0016561E3,2.4106783E2,2.861961E3,6.965223E2,1.8589637E4,2.2456723E2,1.6500608E1,2.6170322E3,2.4492863E2,2.183899E2,4.781324E2,2.4058215E3,2.1121075E2,1.01803314E2,1.4312534E2,1.5196938E2,3.2616302E2],"tree_param":{"num_deleted":"0","num_feature":"21","num_nodes":"27","size_leaf_vector":"1"}},{"base_weights":[-3.0751019E-3,3.4768406E-2,-5.560889E-1,-4.0638858E-1,-5.7993394E-1,3.4743603E-2,-2.9095022E-2,-5.6601524E-1,-2.9129347E-2,-2.9095832E-2,3.5397235E-2],"categories":[],"categories_nodes":[],"categories_segments":[],"categories_sizes":[],"default_left":[0,0,0,0,0,0,0,0,0,0,0],"id":60,"left_children":[1,-1,3,5,7,-1,-1,9,-1,-1,-1],"loss_changes":[2.6004771E4,0E0,1.3389355E2,9.989392E2,8.671875E-1,0E0,0E0,1.062334E2,0E0,0E0,0E0],"parents":[2147483647,0,0,2,2,3,3,4,4,7,7],"right_children":[2,-1,4,6,8,-1,-1,10,-1,-1,-1],"split_conditions":[1E0,3.4768406E-2,5.5E-1,1E0,1.2405492E-4,3.4743603E-2,-2.9095022E-2,1.3104291E-5,-2.9129347E-2,-2.9095832E-2,3.5397235E-2],"split_indices":[6,0,10,4,0,0,0,0,0,0,0],"split_type":[0,0,0,0,0,0,0,0,0,0,0],"sum_hessian":[6.7324484E4,2.9750303E4,3.757418E4,5.165147E3,3.2409031E4,7.0962134E2,4.4555254E3,5.2227637E3,2.7186268E4,5.158914E3,6.384951E1],"tree_param":{"num_deleted":"0","num_feature":"21","num_nodes":"11","size_leaf_vector":"1"}},{"base_weights":[3.2255047E-3,-5.7796836E-1,6.5591234E-1,-2.9102564E-2,-1.0906511E-1,6.8697035E-1,-2.9814063E-2,6.696098E-1,-3.1335317E-2,2.2061357E-2,3.489247E-2,8.257907E-1,-2.7205745E-2,-2.960346E-2,2.1213599E-1,-3.204217E-2,9.253495E-1,2.9258725E-1,-3.3181645E-2,5.1637243E-2,4.0241778E-2,1.6253581E-2,-3.3817448E-2],"categories":[],"categories_nodes":[],"categories_segments":[],"categories_sizes":[],"default_left":[0,0,0,0,0,0,0,0,0,0,0,0,0,0,0,0,0,0,0,0,0,0,0],"id":61,"left_children":[1,3,5,-1,7,9,-1,11,-1,13,-1,15,-1,-1,17,-1,19,21,-1,-1,-1,-1,-1],"loss_changes":[2.5588238E4,6.824902E1,1.2360947E3,0E0,1.25067764E2,2.2425879E2,0E0,2.39491E1,0E0,5.850912E1,0E0,1.6688866E1,0E0,0E0,2.7156536E1,0E0,5.101166E-1,1.1273268E1,0E0,0E0,0E0,0E0,0E0],"parents":[2147483647,0,0,1,1,2,2,4,4,5,5,7,7,9,9,11,11,14,14,16,16,17,17],"right_children":[2,4,6,-1,8,10,-1,12,-1,14,-1,16,-1,-1,18,-1,20,22,-1,-1,-1,-1,-1],"split_conditions":[2E0,2.65E0,1E0,-2.9102564E-2,7.44295E5,1E0,-2.9814063E-2,1E0,-3.1335317E-2,1.85E0,3.489247E-2,1E0,-2.7205745E-2,-2.960346E-2,7E0,-3.204217E-2,3.98729E5,1E0,-3.3181645E-2,5.1637243E-2,4.0241778E-2,1.6253581E-2,-3.3817448E-2],"split_indices":[20,15,4,0,17,18,0,3,